digraph Tree {
node [shape=box, style="filled, rounded", color="black", fontname=helvetica] ;
edge [fontname=helvetica] ;
0 [label="Seniority <= 3.5\ngini = 0.403\nsamples = 2187\nvalue = [612, 1575]\nclass = t", fillcolor="#86c3ef"] ;
1 [label="Records <= 1.5\ngini = 0.491\nsamples = 906\nvalue = [391, 515]\nclass = t", fillcolor="#cfe7f9"] ;
0 -> 1 [labeldistance=2.5, labelangle=45, headlabel="True"] ;
2 [label="Job <= 0.5\ngini = 0.465\nsamples = 749\nvalue = [276, 473]\nclass = t", fillcolor="#add6f4"] ;
1 -> 2 ;
3 [label="Amount <= 1035.0\ngini = 0.371\nsamples = 374\nvalue = [92, 282]\nclass = t", fillcolor="#7abded"] ;
2 -> 3 ;
4 [label="Income <= 103.0\ngini = 0.264\nsamples = 211\nvalue = [33, 178]\nclass = t", fillcolor="#5eafea"] ;
3 -> 4 ;
5 [label="Assets <= 2250.0\ngini = 0.388\nsamples = 91\nvalue = [24, 67]\nclass = t", fillcolor="#80c0ee"] ;
4 -> 5 ;
6 [label="Age <= 30.5\ngini = 0.458\nsamples = 59\nvalue = [21, 38]\nclass = t", fillcolor="#a6d3f3"] ;
5 -> 6 ;
7 [label="Expenses <= 38.5\ngini = 0.391\nsamples = 45\nvalue = [12, 33]\nclass = t", fillcolor="#81c1ee"] ;
6 -> 7 ;
8 [label="Age <= 21.5\ngini = 0.278\nsamples = 30\nvalue = [5, 25]\nclass = t", fillcolor="#61b1ea"] ;
7 -> 8 ;
9 [label="Income <= 39.0\ngini = 0.48\nsamples = 5\nvalue = [3, 2]\nclass = s", fillcolor="#f6d5bd"] ;
8 -> 9 ;
10 [label="gini = 0.0\nsamples = 1\nvalue = [0, 1]\nclass = t", fillcolor="#399de5"] ;
9 -> 10 ;
11 [label="Time <= 42.0\ngini = 0.375\nsamples = 4\nvalue = [3, 1]\nclass = s", fillcolor="#eeab7b"] ;
9 -> 11 ;
12 [label="gini = 0.0\nsamples = 3\nvalue = [3, 0]\nclass = s", fillcolor="#e58139"] ;
11 -> 12 ;
13 [label="gini = 0.0\nsamples = 1\nvalue = [0, 1]\nclass = t", fillcolor="#399de5"] ;
11 -> 13 ;
14 [label="Age <= 27.5\ngini = 0.147\nsamples = 25\nvalue = [2, 23]\nclass = t", fillcolor="#4aa6e7"] ;
8 -> 14 ;
15 [label="gini = 0.0\nsamples = 18\nvalue = [0, 18]\nclass = t", fillcolor="#399de5"] ;
14 -> 15 ;
16 [label="Income <= 51.5\ngini = 0.408\nsamples = 7\nvalue = [2, 5]\nclass = t", fillcolor="#88c4ef"] ;
14 -> 16 ;
17 [label="gini = 0.0\nsamples = 1\nvalue = [1, 0]\nclass = s", fillcolor="#e58139"] ;
16 -> 17 ;
18 [label="Income <= 81.0\ngini = 0.278\nsamples = 6\nvalue = [1, 5]\nclass = t", fillcolor="#61b1ea"] ;
16 -> 18 ;
19 [label="gini = 0.0\nsamples = 4\nvalue = [0, 4]\nclass = t", fillcolor="#399de5"] ;
18 -> 19 ;
20 [label="Price <= 1685.0\ngini = 0.5\nsamples = 2\nvalue = [1, 1]\nclass = s", fillcolor="#ffffff"] ;
18 -> 20 ;
21 [label="gini = 0.0\nsamples = 1\nvalue = [1, 0]\nclass = s", fillcolor="#e58139"] ;
20 -> 21 ;
22 [label="gini = 0.0\nsamples = 1\nvalue = [0, 1]\nclass = t", fillcolor="#399de5"] ;
20 -> 22 ;
23 [label="Amount <= 975.0\ngini = 0.498\nsamples = 15\nvalue = [7, 8]\nclass = t", fillcolor="#e6f3fc"] ;
7 -> 23 ;
24 [label="Amount <= 885.0\ngini = 0.444\nsamples = 9\nvalue = [6, 3]\nclass = s", fillcolor="#f2c09c"] ;
23 -> 24 ;
25 [label="Price <= 872.5\ngini = 0.48\nsamples = 5\nvalue = [2, 3]\nclass = t", fillcolor="#bddef6"] ;
24 -> 25 ;
26 [label="gini = 0.0\nsamples = 2\nvalue = [2, 0]\nclass = s", fillcolor="#e58139"] ;
25 -> 26 ;
27 [label="gini = 0.0\nsamples = 3\nvalue = [0, 3]\nclass = t", fillcolor="#399de5"] ;
25 -> 27 ;
28 [label="gini = 0.0\nsamples = 4\nvalue = [4, 0]\nclass = s", fillcolor="#e58139"] ;
24 -> 28 ;
29 [label="Expenses <= 43.0\ngini = 0.278\nsamples = 6\nvalue = [1, 5]\nclass = t", fillcolor="#61b1ea"] ;
23 -> 29 ;
30 [label="gini = 0.0\nsamples = 1\nvalue = [1, 0]\nclass = s", fillcolor="#e58139"] ;
29 -> 30 ;
31 [label="gini = 0.0\nsamples = 5\nvalue = [0, 5]\nclass = t", fillcolor="#399de5"] ;
29 -> 31 ;
32 [label="Seniority <= 2.5\ngini = 0.459\nsamples = 14\nvalue = [9, 5]\nclass = s", fillcolor="#f3c7a7"] ;
6 -> 32 ;
33 [label="Debt <= 750.0\ngini = 0.298\nsamples = 11\nvalue = [9, 2]\nclass = s", fillcolor="#eb9d65"] ;
32 -> 33 ;
34 [label="Income <= 101.5\ngini = 0.18\nsamples = 10\nvalue = [9, 1]\nclass = s", fillcolor="#e88f4f"] ;
33 -> 34 ;
35 [label="gini = 0.0\nsamples = 8\nvalue = [8, 0]\nclass = s", fillcolor="#e58139"] ;
34 -> 35 ;
36 [label="Age <= 32.5\ngini = 0.5\nsamples = 2\nvalue = [1, 1]\nclass = s", fillcolor="#ffffff"] ;
34 -> 36 ;
37 [label="gini = 0.0\nsamples = 1\nvalue = [1, 0]\nclass = s", fillcolor="#e58139"] ;
36 -> 37 ;
38 [label="gini = 0.0\nsamples = 1\nvalue = [0, 1]\nclass = t", fillcolor="#399de5"] ;
36 -> 38 ;
39 [label="gini = 0.0\nsamples = 1\nvalue = [0, 1]\nclass = t", fillcolor="#399de5"] ;
33 -> 39 ;
40 [label="gini = 0.0\nsamples = 3\nvalue = [0, 3]\nclass = t", fillcolor="#399de5"] ;
32 -> 40 ;
41 [label="Assets <= 7250.0\ngini = 0.17\nsamples = 32\nvalue = [3, 29]\nclass = t", fillcolor="#4da7e8"] ;
5 -> 41 ;
42 [label="gini = 0.0\nsamples = 27\nvalue = [0, 27]\nclass = t", fillcolor="#399de5"] ;
41 -> 42 ;
43 [label="Debt <= 420.0\ngini = 0.48\nsamples = 5\nvalue = [3, 2]\nclass = s", fillcolor="#f6d5bd"] ;
41 -> 43 ;
44 [label="Time <= 54.0\ngini = 0.444\nsamples = 3\nvalue = [1, 2]\nclass = t", fillcolor="#9ccef2"] ;
43 -> 44 ;
45 [label="gini = 0.0\nsamples = 2\nvalue = [0, 2]\nclass = t", fillcolor="#399de5"] ;
44 -> 45 ;
46 [label="gini = 0.0\nsamples = 1\nvalue = [1, 0]\nclass = s", fillcolor="#e58139"] ;
44 -> 46 ;
47 [label="gini = 0.0\nsamples = 2\nvalue = [2, 0]\nclass = s", fillcolor="#e58139"] ;
43 -> 47 ;
48 [label="Price <= 2334.0\ngini = 0.139\nsamples = 120\nvalue = [9, 111]\nclass = t", fillcolor="#49a5e7"] ;
4 -> 48 ;
49 [label="Price <= 962.5\ngini = 0.126\nsamples = 118\nvalue = [8, 110]\nclass = t", fillcolor="#47a4e7"] ;
48 -> 49 ;
50 [label="Price <= 945.0\ngini = 0.252\nsamples = 27\nvalue = [4, 23]\nclass = t", fillcolor="#5baeea"] ;
49 -> 50 ;
51 [label="Expenses <= 68.5\ngini = 0.147\nsamples = 25\nvalue = [2, 23]\nclass = t", fillcolor="#4aa6e7"] ;
50 -> 51 ;
52 [label="gini = 0.0\nsamples = 20\nvalue = [0, 20]\nclass = t", fillcolor="#399de5"] ;
51 -> 52 ;
53 [label="Price <= 675.0\ngini = 0.48\nsamples = 5\nvalue = [2, 3]\nclass = t", fillcolor="#bddef6"] ;
51 -> 53 ;
54 [label="gini = 0.0\nsamples = 3\nvalue = [0, 3]\nclass = t", fillcolor="#399de5"] ;
53 -> 54 ;
55 [label="gini = 0.0\nsamples = 2\nvalue = [2, 0]\nclass = s", fillcolor="#e58139"] ;
53 -> 55 ;
56 [label="gini = 0.0\nsamples = 2\nvalue = [2, 0]\nclass = s", fillcolor="#e58139"] ;
50 -> 56 ;
57 [label="Debt <= 2400.0\ngini = 0.084\nsamples = 91\nvalue = [4, 87]\nclass = t", fillcolor="#42a2e6"] ;
49 -> 57 ;
58 [label="Time <= 15.0\ngini = 0.066\nsamples = 88\nvalue = [3, 85]\nclass = t", fillcolor="#40a0e6"] ;
57 -> 58 ;
59 [label="Seniority <= 2.5\ngini = 0.444\nsamples = 3\nvalue = [1, 2]\nclass = t", fillcolor="#9ccef2"] ;
58 -> 59 ;
60 [label="gini = 0.0\nsamples = 2\nvalue = [0, 2]\nclass = t", fillcolor="#399de5"] ;
59 -> 60 ;
61 [label="gini = 0.0\nsamples = 1\nvalue = [1, 0]\nclass = s", fillcolor="#e58139"] ;
59 -> 61 ;
62 [label="Amount <= 506.0\ngini = 0.046\nsamples = 85\nvalue = [2, 83]\nclass = t", fillcolor="#3e9fe6"] ;
58 -> 62 ;
63 [label="Income <= 152.5\ngini = 0.198\nsamples = 9\nvalue = [1, 8]\nclass = t", fillcolor="#52a9e8"] ;
62 -> 63 ;
64 [label="gini = 0.0\nsamples = 7\nvalue = [0, 7]\nclass = t", fillcolor="#399de5"] ;
63 -> 64 ;
65 [label="Assets <= 5000.0\ngini = 0.5\nsamples = 2\nvalue = [1, 1]\nclass = s", fillcolor="#ffffff"] ;
63 -> 65 ;
66 [label="gini = 0.0\nsamples = 1\nvalue = [1, 0]\nclass = s", fillcolor="#e58139"] ;
65 -> 66 ;
67 [label="gini = 0.0\nsamples = 1\nvalue = [0, 1]\nclass = t", fillcolor="#399de5"] ;
65 -> 67 ;
68 [label="Income <= 122.5\ngini = 0.026\nsamples = 76\nvalue = [1, 75]\nclass = t", fillcolor="#3c9ee5"] ;
62 -> 68 ;
69 [label="Age <= 33.5\ngini = 0.111\nsamples = 17\nvalue = [1, 16]\nclass = t", fillcolor="#45a3e7"] ;
68 -> 69 ;
70 [label="gini = 0.0\nsamples = 13\nvalue = [0, 13]\nclass = t", fillcolor="#399de5"] ;
69 -> 70 ;
71 [label="Age <= 36.5\ngini = 0.375\nsamples = 4\nvalue = [1, 3]\nclass = t", fillcolor="#7bbeee"] ;
69 -> 71 ;
72 [label="gini = 0.0\nsamples = 1\nvalue = [1, 0]\nclass = s", fillcolor="#e58139"] ;
71 -> 72 ;
73 [label="gini = 0.0\nsamples = 3\nvalue = [0, 3]\nclass = t", fillcolor="#399de5"] ;
71 -> 73 ;
74 [label="gini = 0.0\nsamples = 59\nvalue = [0, 59]\nclass = t", fillcolor="#399de5"] ;
68 -> 74 ;
75 [label="Amount <= 975.0\ngini = 0.444\nsamples = 3\nvalue = [1, 2]\nclass = t", fillcolor="#9ccef2"] ;
57 -> 75 ;
76 [label="gini = 0.0\nsamples = 2\nvalue = [0, 2]\nclass = t", fillcolor="#399de5"] ;
75 -> 76 ;
77 [label="gini = 0.0\nsamples = 1\nvalue = [1, 0]\nclass = s", fillcolor="#e58139"] ;
75 -> 77 ;
78 [label="Marital <= 0.5\ngini = 0.5\nsamples = 2\nvalue = [1, 1]\nclass = s", fillcolor="#ffffff"] ;
48 -> 78 ;
79 [label="gini = 0.0\nsamples = 1\nvalue = [1, 0]\nclass = s", fillcolor="#e58139"] ;
78 -> 79 ;
80 [label="gini = 0.0\nsamples = 1\nvalue = [0, 1]\nclass = t", fillcolor="#399de5"] ;
78 -> 80 ;
81 [label="Income <= 98.0\ngini = 0.462\nsamples = 163\nvalue = [59, 104]\nclass = t", fillcolor="#a9d5f4"] ;
3 -> 81 ;
82 [label="Amount <= 1255.0\ngini = 0.478\nsamples = 43\nvalue = [26, 17]\nclass = s", fillcolor="#f6d3ba"] ;
81 -> 82 ;
83 [label="Debt <= 1050.0\ngini = 0.496\nsamples = 22\nvalue = [10, 12]\nclass = t", fillcolor="#deeffb"] ;
82 -> 83 ;
84 [label="Expenses <= 63.5\ngini = 0.444\nsamples = 18\nvalue = [6, 12]\nclass = t", fillcolor="#9ccef2"] ;
83 -> 84 ;
85 [label="Income <= 50.5\ngini = 0.375\nsamples = 16\nvalue = [4, 12]\nclass = t", fillcolor="#7bbeee"] ;
84 -> 85 ;
86 [label="gini = 0.0\nsamples = 1\nvalue = [1, 0]\nclass = s", fillcolor="#e58139"] ;
85 -> 86 ;
87 [label="Age <= 24.5\ngini = 0.32\nsamples = 15\nvalue = [3, 12]\nclass = t", fillcolor="#6ab6ec"] ;
85 -> 87 ;
88 [label="Amount <= 1125.0\ngini = 0.49\nsamples = 7\nvalue = [3, 4]\nclass = t", fillcolor="#cee6f8"] ;
87 -> 88 ;
89 [label="gini = 0.0\nsamples = 2\nvalue = [2, 0]\nclass = s", fillcolor="#e58139"] ;
88 -> 89 ;
90 [label="Seniority <= 0.5\ngini = 0.32\nsamples = 5\nvalue = [1, 4]\nclass = t", fillcolor="#6ab6ec"] ;
88 -> 90 ;
91 [label="Time <= 54.0\ngini = 0.5\nsamples = 2\nvalue = [1, 1]\nclass = s", fillcolor="#ffffff"] ;
90 -> 91 ;
92 [label="gini = 0.0\nsamples = 1\nvalue = [0, 1]\nclass = t", fillcolor="#399de5"] ;
91 -> 92 ;
93 [label="gini = 0.0\nsamples = 1\nvalue = [1, 0]\nclass = s", fillcolor="#e58139"] ;
91 -> 93 ;
94 [label="gini = 0.0\nsamples = 3\nvalue = [0, 3]\nclass = t", fillcolor="#399de5"] ;
90 -> 94 ;
95 [label="gini = 0.0\nsamples = 8\nvalue = [0, 8]\nclass = t", fillcolor="#399de5"] ;
87 -> 95 ;
96 [label="gini = 0.0\nsamples = 2\nvalue = [2, 0]\nclass = s", fillcolor="#e58139"] ;
84 -> 96 ;
97 [label="gini = 0.0\nsamples = 4\nvalue = [4, 0]\nclass = s", fillcolor="#e58139"] ;
83 -> 97 ;
98 [label="Income <= 95.5\ngini = 0.363\nsamples = 21\nvalue = [16, 5]\nclass = s", fillcolor="#eda877"] ;
82 -> 98 ;
99 [label="Amount <= 1446.0\ngini = 0.32\nsamples = 20\nvalue = [16, 4]\nclass = s", fillcolor="#eca06a"] ;
98 -> 99 ;
100 [label="gini = 0.0\nsamples = 8\nvalue = [8, 0]\nclass = s", fillcolor="#e58139"] ;
99 -> 100 ;
101 [label="Amount <= 1675.0\ngini = 0.444\nsamples = 12\nvalue = [8, 4]\nclass = s", fillcolor="#f2c09c"] ;
99 -> 101 ;
102 [label="Price <= 1655.5\ngini = 0.49\nsamples = 7\nvalue = [3, 4]\nclass = t", fillcolor="#cee6f8"] ;
101 -> 102 ;
103 [label="Time <= 54.0\ngini = 0.375\nsamples = 4\nvalue = [3, 1]\nclass = s", fillcolor="#eeab7b"] ;
102 -> 103 ;
104 [label="gini = 0.0\nsamples = 1\nvalue = [0, 1]\nclass = t", fillcolor="#399de5"] ;
103 -> 104 ;
105 [label="gini = 0.0\nsamples = 3\nvalue = [3, 0]\nclass = s", fillcolor="#e58139"] ;
103 -> 105 ;
106 [label="gini = 0.0\nsamples = 3\nvalue = [0, 3]\nclass = t", fillcolor="#399de5"] ;
102 -> 106 ;
107 [label="gini = 0.0\nsamples = 5\nvalue = [5, 0]\nclass = s", fillcolor="#e58139"] ;
101 -> 107 ;
108 [label="gini = 0.0\nsamples = 1\nvalue = [0, 1]\nclass = t", fillcolor="#399de5"] ;
98 -> 108 ;
109 [label="Price <= 1176.0\ngini = 0.399\nsamples = 120\nvalue = [33, 87]\nclass = t", fillcolor="#84c2ef"] ;
81 -> 109 ;
110 [label="gini = 0.0\nsamples = 2\nvalue = [2, 0]\nclass = s", fillcolor="#e58139"] ;
109 -> 110 ;
111 [label="Debt <= 2650.0\ngini = 0.387\nsamples = 118\nvalue = [31, 87]\nclass = t", fillcolor="#80c0ee"] ;
109 -> 111 ;
112 [label="Assets <= 1750.0\ngini = 0.375\nsamples = 116\nvalue = [29, 87]\nclass = t", fillcolor="#7bbeee"] ;
111 -> 112 ;
113 [label="Seniority <= 1.5\ngini = 0.444\nsamples = 60\nvalue = [20, 40]\nclass = t", fillcolor="#9ccef2"] ;
112 -> 113 ;
114 [label="Expenses <= 61.0\ngini = 0.499\nsamples = 27\nvalue = [13, 14]\nclass = t", fillcolor="#f1f8fd"] ;
113 -> 114 ;
115 [label="Age <= 34.5\ngini = 0.43\nsamples = 16\nvalue = [11, 5]\nclass = s", fillcolor="#f1ba93"] ;
114 -> 115 ;
116 [label="Age <= 22.0\ngini = 0.18\nsamples = 10\nvalue = [9, 1]\nclass = s", fillcolor="#e88f4f"] ;
115 -> 116 ;
117 [label="gini = 0.0\nsamples = 1\nvalue = [0, 1]\nclass = t", fillcolor="#399de5"] ;
116 -> 117 ;
118 [label="gini = 0.0\nsamples = 9\nvalue = [9, 0]\nclass = s", fillcolor="#e58139"] ;
116 -> 118 ;
119 [label="Seniority <= 0.5\ngini = 0.444\nsamples = 6\nvalue = [2, 4]\nclass = t", fillcolor="#9ccef2"] ;
115 -> 119 ;
120 [label="Expenses <= 47.5\ngini = 0.444\nsamples = 3\nvalue = [2, 1]\nclass = s", fillcolor="#f2c09c"] ;
119 -> 120 ;
121 [label="gini = 0.0\nsamples = 2\nvalue = [2, 0]\nclass = s", fillcolor="#e58139"] ;
120 -> 121 ;
122 [label="gini = 0.0\nsamples = 1\nvalue = [0, 1]\nclass = t", fillcolor="#399de5"] ;
120 -> 122 ;
123 [label="gini = 0.0\nsamples = 3\nvalue = [0, 3]\nclass = t", fillcolor="#399de5"] ;
119 -> 123 ;
124 [label="Price <= 2193.5\ngini = 0.298\nsamples = 11\nvalue = [2, 9]\nclass = t", fillcolor="#65b3eb"] ;
114 -> 124 ;
125 [label="Price <= 1412.5\ngini = 0.18\nsamples = 10\nvalue = [1, 9]\nclass = t", fillcolor="#4fa8e8"] ;
124 -> 125 ;
126 [label="Amount <= 1250.0\ngini = 0.5\nsamples = 2\nvalue = [1, 1]\nclass = s", fillcolor="#ffffff"] ;
125 -> 126 ;
127 [label="gini = 0.0\nsamples = 1\nvalue = [0, 1]\nclass = t", fillcolor="#399de5"] ;
126 -> 127 ;
128 [label="gini = 0.0\nsamples = 1\nvalue = [1, 0]\nclass = s", fillcolor="#e58139"] ;
126 -> 128 ;
129 [label="gini = 0.0\nsamples = 8\nvalue = [0, 8]\nclass = t", fillcolor="#399de5"] ;
125 -> 129 ;
130 [label="gini = 0.0\nsamples = 1\nvalue = [1, 0]\nclass = s", fillcolor="#e58139"] ;
124 -> 130 ;
131 [label="Expenses <= 91.0\ngini = 0.334\nsamples = 33\nvalue = [7, 26]\nclass = t", fillcolor="#6eb7ec"] ;
113 -> 131 ;
132 [label="Time <= 42.0\ngini = 0.271\nsamples = 31\nvalue = [5, 26]\nclass = t", fillcolor="#5fb0ea"] ;
131 -> 132 ;
133 [label="Marital <= 0.5\ngini = 0.444\nsamples = 3\nvalue = [2, 1]\nclass = s", fillcolor="#f2c09c"] ;
132 -> 133 ;
134 [label="gini = 0.0\nsamples = 2\nvalue = [2, 0]\nclass = s", fillcolor="#e58139"] ;
133 -> 134 ;
135 [label="gini = 0.0\nsamples = 1\nvalue = [0, 1]\nclass = t", fillcolor="#399de5"] ;
133 -> 135 ;
136 [label="Amount <= 1325.0\ngini = 0.191\nsamples = 28\nvalue = [3, 25]\nclass = t", fillcolor="#51a9e8"] ;
132 -> 136 ;
137 [label="gini = 0.0\nsamples = 15\nvalue = [0, 15]\nclass = t", fillcolor="#399de5"] ;
136 -> 137 ;
138 [label="Price <= 1410.5\ngini = 0.355\nsamples = 13\nvalue = [3, 10]\nclass = t", fillcolor="#74baed"] ;
136 -> 138 ;
139 [label="gini = 0.0\nsamples = 1\nvalue = [1, 0]\nclass = s", fillcolor="#e58139"] ;
138 -> 139 ;
140 [label="Income <= 140.5\ngini = 0.278\nsamples = 12\nvalue = [2, 10]\nclass = t", fillcolor="#61b1ea"] ;
138 -> 140 ;
141 [label="Expenses <= 45.5\ngini = 0.48\nsamples = 5\nvalue = [2, 3]\nclass = t", fillcolor="#bddef6"] ;
140 -> 141 ;
142 [label="gini = 0.0\nsamples = 3\nvalue = [0, 3]\nclass = t", fillcolor="#399de5"] ;
141 -> 142 ;
143 [label="gini = 0.0\nsamples = 2\nvalue = [2, 0]\nclass = s", fillcolor="#e58139"] ;
141 -> 143 ;
144 [label="gini = 0.0\nsamples = 7\nvalue = [0, 7]\nclass = t", fillcolor="#399de5"] ;
140 -> 144 ;
145 [label="gini = 0.0\nsamples = 2\nvalue = [2, 0]\nclass = s", fillcolor="#e58139"] ;
131 -> 145 ;
146 [label="Age <= 20.5\ngini = 0.27\nsamples = 56\nvalue = [9, 47]\nclass = t", fillcolor="#5fb0ea"] ;
112 -> 146 ;
147 [label="gini = 0.0\nsamples = 2\nvalue = [2, 0]\nclass = s", fillcolor="#e58139"] ;
146 -> 147 ;
148 [label="Expenses <= 82.5\ngini = 0.226\nsamples = 54\nvalue = [7, 47]\nclass = t", fillcolor="#56ace9"] ;
146 -> 148 ;
149 [label="Income <= 420.5\ngini = 0.177\nsamples = 51\nvalue = [5, 46]\nclass = t", fillcolor="#4fa8e8"] ;
148 -> 149 ;
150 [label="Age <= 31.5\ngini = 0.147\nsamples = 50\nvalue = [4, 46]\nclass = t", fillcolor="#4aa6e7"] ;
149 -> 150 ;
151 [label="gini = 0.0\nsamples = 27\nvalue = [0, 27]\nclass = t", fillcolor="#399de5"] ;
150 -> 151 ;
152 [label="Income <= 117.5\ngini = 0.287\nsamples = 23\nvalue = [4, 19]\nclass = t", fillcolor="#63b2ea"] ;
150 -> 152 ;
153 [label="gini = 0.0\nsamples = 1\nvalue = [1, 0]\nclass = s", fillcolor="#e58139"] ;
152 -> 153 ;
154 [label="Amount <= 1577.5\ngini = 0.236\nsamples = 22\nvalue = [3, 19]\nclass = t", fillcolor="#58ace9"] ;
152 -> 154 ;
155 [label="Age <= 32.5\ngini = 0.111\nsamples = 17\nvalue = [1, 16]\nclass = t", fillcolor="#45a3e7"] ;
154 -> 155 ;
156 [label="Income <= 174.5\ngini = 0.375\nsamples = 4\nvalue = [1, 3]\nclass = t", fillcolor="#7bbeee"] ;
155 -> 156 ;
157 [label="gini = 0.0\nsamples = 3\nvalue = [0, 3]\nclass = t", fillcolor="#399de5"] ;
156 -> 157 ;
158 [label="gini = 0.0\nsamples = 1\nvalue = [1, 0]\nclass = s", fillcolor="#e58139"] ;
156 -> 158 ;
159 [label="gini = 0.0\nsamples = 13\nvalue = [0, 13]\nclass = t", fillcolor="#399de5"] ;
155 -> 159 ;
160 [label="Assets <= 10500.0\ngini = 0.48\nsamples = 5\nvalue = [2, 3]\nclass = t", fillcolor="#bddef6"] ;
154 -> 160 ;
161 [label="gini = 0.0\nsamples = 2\nvalue = [2, 0]\nclass = s", fillcolor="#e58139"] ;
160 -> 161 ;
162 [label="gini = 0.0\nsamples = 3\nvalue = [0, 3]\nclass = t", fillcolor="#399de5"] ;
160 -> 162 ;
163 [label="gini = 0.0\nsamples = 1\nvalue = [1, 0]\nclass = s", fillcolor="#e58139"] ;
149 -> 163 ;
164 [label="Assets <= 6500.0\ngini = 0.444\nsamples = 3\nvalue = [2, 1]\nclass = s", fillcolor="#f2c09c"] ;
148 -> 164 ;
165 [label="gini = 0.0\nsamples = 2\nvalue = [2, 0]\nclass = s", fillcolor="#e58139"] ;
164 -> 165 ;
166 [label="gini = 0.0\nsamples = 1\nvalue = [0, 1]\nclass = t", fillcolor="#399de5"] ;
164 -> 166 ;
167 [label="gini = 0.0\nsamples = 2\nvalue = [2, 0]\nclass = s", fillcolor="#e58139"] ;
111 -> 167 ;
168 [label="Assets <= 4400.0\ngini = 0.5\nsamples = 375\nvalue = [184, 191]\nclass = t", fillcolor="#f8fbfe"] ;
2 -> 168 ;
169 [label="Time <= 27.0\ngini = 0.491\nsamples = 248\nvalue = [141, 107]\nclass = s", fillcolor="#f9e1cf"] ;
168 -> 169 ;
170 [label="Price <= 696.5\ngini = 0.451\nsamples = 35\nvalue = [12, 23]\nclass = t", fillcolor="#a0d0f3"] ;
169 -> 170 ;
171 [label="Amount <= 257.5\ngini = 0.492\nsamples = 16\nvalue = [9, 7]\nclass = s", fillcolor="#f9e3d3"] ;
170 -> 171 ;
172 [label="Income <= 48.5\ngini = 0.444\nsamples = 9\nvalue = [3, 6]\nclass = t", fillcolor="#9ccef2"] ;
171 -> 172 ;
173 [label="gini = 0.0\nsamples = 2\nvalue = [2, 0]\nclass = s", fillcolor="#e58139"] ;
172 -> 173 ;
174 [label="Assets <= 3750.0\ngini = 0.245\nsamples = 7\nvalue = [1, 6]\nclass = t", fillcolor="#5aade9"] ;
172 -> 174 ;
175 [label="gini = 0.0\nsamples = 6\nvalue = [0, 6]\nclass = t", fillcolor="#399de5"] ;
174 -> 175 ;
176 [label="gini = 0.0\nsamples = 1\nvalue = [1, 0]\nclass = s", fillcolor="#e58139"] ;
174 -> 176 ;
177 [label="Assets <= 2250.0\ngini = 0.245\nsamples = 7\nvalue = [6, 1]\nclass = s", fillcolor="#e9965a"] ;
171 -> 177 ;
178 [label="gini = 0.0\nsamples = 6\nvalue = [6, 0]\nclass = s", fillcolor="#e58139"] ;
177 -> 178 ;
179 [label="gini = 0.0\nsamples = 1\nvalue = [0, 1]\nclass = t", fillcolor="#399de5"] ;
177 -> 179 ;
180 [label="Age <= 48.0\ngini = 0.266\nsamples = 19\nvalue = [3, 16]\nclass = t", fillcolor="#5eafea"] ;
170 -> 180 ;
181 [label="Price <= 962.0\ngini = 0.111\nsamples = 17\nvalue = [1, 16]\nclass = t", fillcolor="#45a3e7"] ;
180 -> 181 ;
182 [label="Marital <= 0.5\ngini = 0.444\nsamples = 3\nvalue = [1, 2]\nclass = t", fillcolor="#9ccef2"] ;
181 -> 182 ;
183 [label="gini = 0.0\nsamples = 2\nvalue = [0, 2]\nclass = t", fillcolor="#399de5"] ;
182 -> 183 ;
184 [label="gini = 0.0\nsamples = 1\nvalue = [1, 0]\nclass = s", fillcolor="#e58139"] ;
182 -> 184 ;
185 [label="gini = 0.0\nsamples = 14\nvalue = [0, 14]\nclass = t", fillcolor="#399de5"] ;
181 -> 185 ;
186 [label="gini = 0.0\nsamples = 2\nvalue = [2, 0]\nclass = s", fillcolor="#e58139"] ;
180 -> 186 ;
187 [label="Expenses <= 78.0\ngini = 0.478\nsamples = 213\nvalue = [129, 84]\nclass = s", fillcolor="#f6d3ba"] ;
169 -> 187 ;
188 [label="Income <= 189.5\ngini = 0.487\nsamples = 195\nvalue = [113, 82]\nclass = s", fillcolor="#f8dcc9"] ;
187 -> 188 ;
189 [label="Seniority <= 2.5\ngini = 0.476\nsamples = 179\nvalue = [109, 70]\nclass = s", fillcolor="#f6d2b8"] ;
188 -> 189 ;
190 [label="Assets <= 3250.0\ngini = 0.455\nsamples = 154\nvalue = [100, 54]\nclass = s", fillcolor="#f3c5a4"] ;
189 -> 190 ;
191 [label="Income <= 91.0\ngini = 0.475\nsamples = 131\nvalue = [80, 51]\nclass = s", fillcolor="#f6d1b7"] ;
190 -> 191 ;
192 [label="Age <= 33.5\ngini = 0.436\nsamples = 78\nvalue = [53, 25]\nclass = s", fillcolor="#f1bc96"] ;
191 -> 192 ;
193 [label="Amount <= 1425.0\ngini = 0.476\nsamples = 59\nvalue = [36, 23]\nclass = s", fillcolor="#f6d2b8"] ;
192 -> 193 ;
194 [label="Amount <= 545.0\ngini = 0.444\nsamples = 54\nvalue = [36, 18]\nclass = s", fillcolor="#f2c09c"] ;
193 -> 194 ;
195 [label="Amount <= 275.0\ngini = 0.408\nsamples = 7\nvalue = [2, 5]\nclass = t", fillcolor="#88c4ef"] ;
194 -> 195 ;
196 [label="gini = 0.0\nsamples = 1\nvalue = [1, 0]\nclass = s", fillcolor="#e58139"] ;
195 -> 196 ;
197 [label="Price <= 712.5\ngini = 0.278\nsamples = 6\nvalue = [1, 5]\nclass = t", fillcolor="#61b1ea"] ;
195 -> 197 ;
198 [label="Seniority <= 0.5\ngini = 0.5\nsamples = 2\nvalue = [1, 1]\nclass = s", fillcolor="#ffffff"] ;
197 -> 198 ;
199 [label="gini = 0.0\nsamples = 1\nvalue = [1, 0]\nclass = s", fillcolor="#e58139"] ;
198 -> 199 ;
200 [label="gini = 0.0\nsamples = 1\nvalue = [0, 1]\nclass = t", fillcolor="#399de5"] ;
198 -> 200 ;
201 [label="gini = 0.0\nsamples = 4\nvalue = [0, 4]\nclass = t", fillcolor="#399de5"] ;
197 -> 201 ;
202 [label="Seniority <= 1.5\ngini = 0.4\nsamples = 47\nvalue = [34, 13]\nclass = s", fillcolor="#efb185"] ;
194 -> 202 ;
203 [label="Assets <= 1250.0\ngini = 0.313\nsamples = 36\nvalue = [29, 7]\nclass = s", fillcolor="#eb9f69"] ;
202 -> 203 ;
204 [label="Price <= 1312.5\ngini = 0.257\nsamples = 33\nvalue = [28, 5]\nclass = s", fillcolor="#ea985c"] ;
203 -> 204 ;
205 [label="Price <= 1310.5\ngini = 0.401\nsamples = 18\nvalue = [13, 5]\nclass = s", fillcolor="#efb185"] ;
204 -> 205 ;
206 [label="Income <= 68.5\ngini = 0.36\nsamples = 17\nvalue = [13, 4]\nclass = s", fillcolor="#eda876"] ;
205 -> 206 ;
207 [label="Amount <= 625.0\ngini = 0.18\nsamples = 10\nvalue = [9, 1]\nclass = s", fillcolor="#e88f4f"] ;
206 -> 207 ;
208 [label="Price <= 865.0\ngini = 0.5\nsamples = 2\nvalue = [1, 1]\nclass = s", fillcolor="#ffffff"] ;
207 -> 208 ;
209 [label="gini = 0.0\nsamples = 1\nvalue = [1, 0]\nclass = s", fillcolor="#e58139"] ;
208 -> 209 ;
210 [label="gini = 0.0\nsamples = 1\nvalue = [0, 1]\nclass = t", fillcolor="#399de5"] ;
208 -> 210 ;
211 [label="gini = 0.0\nsamples = 8\nvalue = [8, 0]\nclass = s", fillcolor="#e58139"] ;
207 -> 211 ;
212 [label="Age <= 28.0\ngini = 0.49\nsamples = 7\nvalue = [4, 3]\nclass = s", fillcolor="#f8e0ce"] ;
206 -> 212 ;
213 [label="Price <= 912.5\ngini = 0.48\nsamples = 5\nvalue = [2, 3]\nclass = t", fillcolor="#bddef6"] ;
212 -> 213 ;
214 [label="Income <= 73.0\ngini = 0.444\nsamples = 3\nvalue = [2, 1]\nclass = s", fillcolor="#f2c09c"] ;
213 -> 214 ;
215 [label="gini = 0.0\nsamples = 2\nvalue = [2, 0]\nclass = s", fillcolor="#e58139"] ;
214 -> 215 ;
216 [label="gini = 0.0\nsamples = 1\nvalue = [0, 1]\nclass = t", fillcolor="#399de5"] ;
214 -> 216 ;
217 [label="gini = 0.0\nsamples = 2\nvalue = [0, 2]\nclass = t", fillcolor="#399de5"] ;
213 -> 217 ;
218 [label="gini = 0.0\nsamples = 2\nvalue = [2, 0]\nclass = s", fillcolor="#e58139"] ;
212 -> 218 ;
219 [label="gini = 0.0\nsamples = 1\nvalue = [0, 1]\nclass = t", fillcolor="#399de5"] ;
205 -> 219 ;
220 [label="gini = 0.0\nsamples = 15\nvalue = [15, 0]\nclass = s", fillcolor="#e58139"] ;
204 -> 220 ;
221 [label="Amount <= 1150.0\ngini = 0.444\nsamples = 3\nvalue = [1, 2]\nclass = t", fillcolor="#9ccef2"] ;
203 -> 221 ;
222 [label="gini = 0.0\nsamples = 2\nvalue = [0, 2]\nclass = t", fillcolor="#399de5"] ;
221 -> 222 ;
223 [label="gini = 0.0\nsamples = 1\nvalue = [1, 0]\nclass = s", fillcolor="#e58139"] ;
221 -> 223 ;
224 [label="Amount <= 850.0\ngini = 0.496\nsamples = 11\nvalue = [5, 6]\nclass = t", fillcolor="#deeffb"] ;
202 -> 224 ;
225 [label="gini = 0.0\nsamples = 3\nvalue = [3, 0]\nclass = s", fillcolor="#e58139"] ;
224 -> 225 ;
226 [label="Assets <= 1250.0\ngini = 0.375\nsamples = 8\nvalue = [2, 6]\nclass = t", fillcolor="#7bbeee"] ;
224 -> 226 ;
227 [label="gini = 0.0\nsamples = 6\nvalue = [0, 6]\nclass = t", fillcolor="#399de5"] ;
226 -> 227 ;
228 [label="gini = 0.0\nsamples = 2\nvalue = [2, 0]\nclass = s", fillcolor="#e58139"] ;
226 -> 228 ;
229 [label="gini = 0.0\nsamples = 5\nvalue = [0, 5]\nclass = t", fillcolor="#399de5"] ;
193 -> 229 ;
230 [label="Age <= 45.5\ngini = 0.188\nsamples = 19\nvalue = [17, 2]\nclass = s", fillcolor="#e89050"] ;
192 -> 230 ;
231 [label="gini = 0.0\nsamples = 13\nvalue = [13, 0]\nclass = s", fillcolor="#e58139"] ;
230 -> 231 ;
232 [label="Age <= 47.5\ngini = 0.444\nsamples = 6\nvalue = [4, 2]\nclass = s", fillcolor="#f2c09c"] ;
230 -> 232 ;
233 [label="gini = 0.0\nsamples = 1\nvalue = [0, 1]\nclass = t", fillcolor="#399de5"] ;
232 -> 233 ;
234 [label="Income <= 77.5\ngini = 0.32\nsamples = 5\nvalue = [4, 1]\nclass = s", fillcolor="#eca06a"] ;
232 -> 234 ;
235 [label="gini = 0.0\nsamples = 4\nvalue = [4, 0]\nclass = s", fillcolor="#e58139"] ;
234 -> 235 ;
236 [label="gini = 0.0\nsamples = 1\nvalue = [0, 1]\nclass = t", fillcolor="#399de5"] ;
234 -> 236 ;
237 [label="Income <= 167.0\ngini = 0.5\nsamples = 53\nvalue = [27, 26]\nclass = s", fillcolor="#fefaf8"] ;
191 -> 237 ;
238 [label="Price <= 730.0\ngini = 0.497\nsamples = 48\nvalue = [22, 26]\nclass = t", fillcolor="#e1f0fb"] ;
237 -> 238 ;
239 [label="gini = 0.0\nsamples = 4\nvalue = [4, 0]\nclass = s", fillcolor="#e58139"] ;
238 -> 239 ;
240 [label="Expenses <= 54.5\ngini = 0.483\nsamples = 44\nvalue = [18, 26]\nclass = t", fillcolor="#c2e1f7"] ;
238 -> 240 ;
241 [label="Expenses <= 47.5\ngini = 0.499\nsamples = 31\nvalue = [15, 16]\nclass = t", fillcolor="#f3f9fd"] ;
240 -> 241 ;
242 [label="Age <= 31.0\ngini = 0.483\nsamples = 27\nvalue = [11, 16]\nclass = t", fillcolor="#c1e0f7"] ;
241 -> 242 ;
243 [label="Amount <= 950.0\ngini = 0.415\nsamples = 17\nvalue = [5, 12]\nclass = t", fillcolor="#8bc6f0"] ;
242 -> 243 ;
244 [label="gini = 0.0\nsamples = 6\nvalue = [0, 6]\nclass = t", fillcolor="#399de5"] ;
243 -> 244 ;
245 [label="Income <= 144.5\ngini = 0.496\nsamples = 11\nvalue = [5, 6]\nclass = t", fillcolor="#deeffb"] ;
243 -> 245 ;
246 [label="Income <= 115.5\ngini = 0.408\nsamples = 7\nvalue = [5, 2]\nclass = s", fillcolor="#efb388"] ;
245 -> 246 ;
247 [label="Seniority <= 0.5\ngini = 0.444\nsamples = 3\nvalue = [1, 2]\nclass = t", fillcolor="#9ccef2"] ;
246 -> 247 ;
248 [label="gini = 0.0\nsamples = 1\nvalue = [1, 0]\nclass = s", fillcolor="#e58139"] ;
247 -> 248 ;
249 [label="gini = 0.0\nsamples = 2\nvalue = [0, 2]\nclass = t", fillcolor="#399de5"] ;
247 -> 249 ;
250 [label="gini = 0.0\nsamples = 4\nvalue = [4, 0]\nclass = s", fillcolor="#e58139"] ;
246 -> 250 ;
251 [label="gini = 0.0\nsamples = 4\nvalue = [0, 4]\nclass = t", fillcolor="#399de5"] ;
245 -> 251 ;
252 [label="Home <= 0.5\ngini = 0.48\nsamples = 10\nvalue = [6, 4]\nclass = s", fillcolor="#f6d5bd"] ;
242 -> 252 ;
253 [label="gini = 0.0\nsamples = 2\nvalue = [0, 2]\nclass = t", fillcolor="#399de5"] ;
252 -> 253 ;
254 [label="Expenses <= 46.0\ngini = 0.375\nsamples = 8\nvalue = [6, 2]\nclass = s", fillcolor="#eeab7b"] ;
252 -> 254 ;
255 [label="Income <= 154.0\ngini = 0.245\nsamples = 7\nvalue = [6, 1]\nclass = s", fillcolor="#e9965a"] ;
254 -> 255 ;
256 [label="gini = 0.0\nsamples = 6\nvalue = [6, 0]\nclass = s", fillcolor="#e58139"] ;
255 -> 256 ;
257 [label="gini = 0.0\nsamples = 1\nvalue = [0, 1]\nclass = t", fillcolor="#399de5"] ;
255 -> 257 ;
258 [label="gini = 0.0\nsamples = 1\nvalue = [0, 1]\nclass = t", fillcolor="#399de5"] ;
254 -> 258 ;
259 [label="gini = 0.0\nsamples = 4\nvalue = [4, 0]\nclass = s", fillcolor="#e58139"] ;
241 -> 259 ;
260 [label="Age <= 24.5\ngini = 0.355\nsamples = 13\nvalue = [3, 10]\nclass = t", fillcolor="#74baed"] ;
240 -> 260 ;
261 [label="gini = 0.0\nsamples = 2\nvalue = [2, 0]\nclass = s", fillcolor="#e58139"] ;
260 -> 261 ;
262 [label="Age <= 43.5\ngini = 0.165\nsamples = 11\nvalue = [1, 10]\nclass = t", fillcolor="#4da7e8"] ;
260 -> 262 ;
263 [label="gini = 0.0\nsamples = 9\nvalue = [0, 9]\nclass = t", fillcolor="#399de5"] ;
262 -> 263 ;
264 [label="Time <= 54.0\ngini = 0.5\nsamples = 2\nvalue = [1, 1]\nclass = s", fillcolor="#ffffff"] ;
262 -> 264 ;
265 [label="gini = 0.0\nsamples = 1\nvalue = [1, 0]\nclass = s", fillcolor="#e58139"] ;
264 -> 265 ;
266 [label="gini = 0.0\nsamples = 1\nvalue = [0, 1]\nclass = t", fillcolor="#399de5"] ;
264 -> 266 ;
267 [label="gini = 0.0\nsamples = 5\nvalue = [5, 0]\nclass = s", fillcolor="#e58139"] ;
237 -> 267 ;
268 [label="Age <= 22.5\ngini = 0.227\nsamples = 23\nvalue = [20, 3]\nclass = s", fillcolor="#e99457"] ;
190 -> 268 ;
269 [label="gini = 0.0\nsamples = 1\nvalue = [0, 1]\nclass = t", fillcolor="#399de5"] ;
268 -> 269 ;
270 [label="Debt <= 2890.0\ngini = 0.165\nsamples = 22\nvalue = [20, 2]\nclass = s", fillcolor="#e88e4d"] ;
268 -> 270 ;
271 [label="Price <= 1619.5\ngini = 0.095\nsamples = 20\nvalue = [19, 1]\nclass = s", fillcolor="#e68843"] ;
270 -> 271 ;
272 [label="gini = 0.0\nsamples = 14\nvalue = [14, 0]\nclass = s", fillcolor="#e58139"] ;
271 -> 272 ;
273 [label="Price <= 1710.0\ngini = 0.278\nsamples = 6\nvalue = [5, 1]\nclass = s", fillcolor="#ea9a61"] ;
271 -> 273 ;
274 [label="gini = 0.0\nsamples = 1\nvalue = [0, 1]\nclass = t", fillcolor="#399de5"] ;
273 -> 274 ;
275 [label="gini = 0.0\nsamples = 5\nvalue = [5, 0]\nclass = s", fillcolor="#e58139"] ;
273 -> 275 ;
276 [label="Income <= 141.0\ngini = 0.5\nsamples = 2\nvalue = [1, 1]\nclass = s", fillcolor="#ffffff"] ;
270 -> 276 ;
277 [label="gini = 0.0\nsamples = 1\nvalue = [0, 1]\nclass = t", fillcolor="#399de5"] ;
276 -> 277 ;
278 [label="gini = 0.0\nsamples = 1\nvalue = [1, 0]\nclass = s", fillcolor="#e58139"] ;
276 -> 278 ;
279 [label="Price <= 1340.0\ngini = 0.461\nsamples = 25\nvalue = [9, 16]\nclass = t", fillcolor="#a8d4f4"] ;
189 -> 279 ;
280 [label="Income <= 10.5\ngini = 0.153\nsamples = 12\nvalue = [1, 11]\nclass = t", fillcolor="#4ba6e7"] ;
279 -> 280 ;
281 [label="gini = 0.0\nsamples = 1\nvalue = [1, 0]\nclass = s", fillcolor="#e58139"] ;
280 -> 281 ;
282 [label="gini = 0.0\nsamples = 11\nvalue = [0, 11]\nclass = t", fillcolor="#399de5"] ;
280 -> 282 ;
283 [label="Assets <= 3500.0\ngini = 0.473\nsamples = 13\nvalue = [8, 5]\nclass = s", fillcolor="#f5d0b5"] ;
279 -> 283 ;
284 [label="Amount <= 1650.0\ngini = 0.32\nsamples = 10\nvalue = [8, 2]\nclass = s", fillcolor="#eca06a"] ;
283 -> 284 ;
285 [label="Price <= 1643.0\ngini = 0.198\nsamples = 9\nvalue = [8, 1]\nclass = s", fillcolor="#e89152"] ;
284 -> 285 ;
286 [label="gini = 0.0\nsamples = 6\nvalue = [6, 0]\nclass = s", fillcolor="#e58139"] ;
285 -> 286 ;
287 [label="Marital <= 0.5\ngini = 0.444\nsamples = 3\nvalue = [2, 1]\nclass = s", fillcolor="#f2c09c"] ;
285 -> 287 ;
288 [label="gini = 0.0\nsamples = 2\nvalue = [2, 0]\nclass = s", fillcolor="#e58139"] ;
287 -> 288 ;
289 [label="gini = 0.0\nsamples = 1\nvalue = [0, 1]\nclass = t", fillcolor="#399de5"] ;
287 -> 289 ;
290 [label="gini = 0.0\nsamples = 1\nvalue = [0, 1]\nclass = t", fillcolor="#399de5"] ;
284 -> 290 ;
291 [label="gini = 0.0\nsamples = 3\nvalue = [0, 3]\nclass = t", fillcolor="#399de5"] ;
283 -> 291 ;
292 [label="Assets <= 750.0\ngini = 0.375\nsamples = 16\nvalue = [4, 12]\nclass = t", fillcolor="#7bbeee"] ;
188 -> 292 ;
293 [label="Price <= 1493.5\ngini = 0.49\nsamples = 7\nvalue = [4, 3]\nclass = s", fillcolor="#f8e0ce"] ;
292 -> 293 ;
294 [label="gini = 0.0\nsamples = 4\nvalue = [4, 0]\nclass = s", fillcolor="#e58139"] ;
293 -> 294 ;
295 [label="gini = 0.0\nsamples = 3\nvalue = [0, 3]\nclass = t", fillcolor="#399de5"] ;
293 -> 295 ;
296 [label="gini = 0.0\nsamples = 9\nvalue = [0, 9]\nclass = t", fillcolor="#399de5"] ;
292 -> 296 ;
297 [label="Income <= 19.0\ngini = 0.198\nsamples = 18\nvalue = [16, 2]\nclass = s", fillcolor="#e89152"] ;
187 -> 297 ;
298 [label="Seniority <= 0.5\ngini = 0.5\nsamples = 2\nvalue = [1, 1]\nclass = s", fillcolor="#ffffff"] ;
297 -> 298 ;
299 [label="gini = 0.0\nsamples = 1\nvalue = [1, 0]\nclass = s", fillcolor="#e58139"] ;
298 -> 299 ;
300 [label="gini = 0.0\nsamples = 1\nvalue = [0, 1]\nclass = t", fillcolor="#399de5"] ;
298 -> 300 ;
301 [label="Age <= 32.5\ngini = 0.117\nsamples = 16\nvalue = [15, 1]\nclass = s", fillcolor="#e78946"] ;
297 -> 301 ;
302 [label="Amount <= 1125.0\ngini = 0.444\nsamples = 3\nvalue = [2, 1]\nclass = s", fillcolor="#f2c09c"] ;
301 -> 302 ;
303 [label="gini = 0.0\nsamples = 2\nvalue = [2, 0]\nclass = s", fillcolor="#e58139"] ;
302 -> 303 ;
304 [label="gini = 0.0\nsamples = 1\nvalue = [0, 1]\nclass = t", fillcolor="#399de5"] ;
302 -> 304 ;
305 [label="gini = 0.0\nsamples = 13\nvalue = [13, 0]\nclass = s", fillcolor="#e58139"] ;
301 -> 305 ;
306 [label="Amount <= 1225.0\ngini = 0.448\nsamples = 127\nvalue = [43, 84]\nclass = t", fillcolor="#9ecff2"] ;
168 -> 306 ;
307 [label="Debt <= 2950.0\ngini = 0.372\nsamples = 85\nvalue = [21, 64]\nclass = t", fillcolor="#7abdee"] ;
306 -> 307 ;
308 [label="Income <= 49.5\ngini = 0.314\nsamples = 77\nvalue = [15, 62]\nclass = t", fillcolor="#69b5eb"] ;
307 -> 308 ;
309 [label="Income <= 39.5\ngini = 0.48\nsamples = 20\nvalue = [8, 12]\nclass = t", fillcolor="#bddef6"] ;
308 -> 309 ;
310 [label="Amount <= 950.0\ngini = 0.415\nsamples = 17\nvalue = [5, 12]\nclass = t", fillcolor="#8bc6f0"] ;
309 -> 310 ;
311 [label="Price <= 798.5\ngini = 0.278\nsamples = 12\nvalue = [2, 10]\nclass = t", fillcolor="#61b1ea"] ;
310 -> 311 ;
312 [label="gini = 0.0\nsamples = 1\nvalue = [1, 0]\nclass = s", fillcolor="#e58139"] ;
311 -> 312 ;
313 [label="Time <= 54.0\ngini = 0.165\nsamples = 11\nvalue = [1, 10]\nclass = t", fillcolor="#4da7e8"] ;
311 -> 313 ;
314 [label="gini = 0.0\nsamples = 10\nvalue = [0, 10]\nclass = t", fillcolor="#399de5"] ;
313 -> 314 ;
315 [label="gini = 0.0\nsamples = 1\nvalue = [1, 0]\nclass = s", fillcolor="#e58139"] ;
313 -> 315 ;
316 [label="Price <= 1320.0\ngini = 0.48\nsamples = 5\nvalue = [3, 2]\nclass = s", fillcolor="#f6d5bd"] ;
310 -> 316 ;
317 [label="gini = 0.0\nsamples = 2\nvalue = [2, 0]\nclass = s", fillcolor="#e58139"] ;
316 -> 317 ;
318 [label="Age <= 48.5\ngini = 0.444\nsamples = 3\nvalue = [1, 2]\nclass = t", fillcolor="#9ccef2"] ;
316 -> 318 ;
319 [label="gini = 0.0\nsamples = 2\nvalue = [0, 2]\nclass = t", fillcolor="#399de5"] ;
318 -> 319 ;
320 [label="gini = 0.0\nsamples = 1\nvalue = [1, 0]\nclass = s", fillcolor="#e58139"] ;
318 -> 320 ;
321 [label="gini = 0.0\nsamples = 3\nvalue = [3, 0]\nclass = s", fillcolor="#e58139"] ;
309 -> 321 ;
322 [label="Debt <= 1150.0\ngini = 0.215\nsamples = 57\nvalue = [7, 50]\nclass = t", fillcolor="#55abe9"] ;
308 -> 322 ;
323 [label="Expenses <= 100.0\ngini = 0.12\nsamples = 47\nvalue = [3, 44]\nclass = t", fillcolor="#46a4e7"] ;
322 -> 323 ;
324 [label="Income <= 82.5\ngini = 0.083\nsamples = 46\nvalue = [2, 44]\nclass = t", fillcolor="#42a1e6"] ;
323 -> 324 ;
325 [label="Marital <= 0.5\ngini = 0.32\nsamples = 10\nvalue = [2, 8]\nclass = t", fillcolor="#6ab6ec"] ;
324 -> 325 ;
326 [label="gini = 0.0\nsamples = 8\nvalue = [0, 8]\nclass = t", fillcolor="#399de5"] ;
325 -> 326 ;
327 [label="gini = 0.0\nsamples = 2\nvalue = [2, 0]\nclass = s", fillcolor="#e58139"] ;
325 -> 327 ;
328 [label="gini = 0.0\nsamples = 36\nvalue = [0, 36]\nclass = t", fillcolor="#399de5"] ;
324 -> 328 ;
329 [label="gini = 0.0\nsamples = 1\nvalue = [1, 0]\nclass = s", fillcolor="#e58139"] ;
323 -> 329 ;
330 [label="Assets <= 6550.0\ngini = 0.48\nsamples = 10\nvalue = [4, 6]\nclass = t", fillcolor="#bddef6"] ;
322 -> 330 ;
331 [label="Income <= 113.5\ngini = 0.444\nsamples = 6\nvalue = [4, 2]\nclass = s", fillcolor="#f2c09c"] ;
330 -> 331 ;
332 [label="gini = 0.0\nsamples = 2\nvalue = [0, 2]\nclass = t", fillcolor="#399de5"] ;
331 -> 332 ;
333 [label="gini = 0.0\nsamples = 4\nvalue = [4, 0]\nclass = s", fillcolor="#e58139"] ;
331 -> 333 ;
334 [label="gini = 0.0\nsamples = 4\nvalue = [0, 4]\nclass = t", fillcolor="#399de5"] ;
330 -> 334 ;
335 [label="Time <= 42.0\ngini = 0.375\nsamples = 8\nvalue = [6, 2]\nclass = s", fillcolor="#eeab7b"] ;
307 -> 335 ;
336 [label="gini = 0.0\nsamples = 5\nvalue = [5, 0]\nclass = s", fillcolor="#e58139"] ;
335 -> 336 ;
337 [label="Income <= 165.0\ngini = 0.444\nsamples = 3\nvalue = [1, 2]\nclass = t", fillcolor="#9ccef2"] ;
335 -> 337 ;
338 [label="gini = 0.0\nsamples = 2\nvalue = [0, 2]\nclass = t", fillcolor="#399de5"] ;
337 -> 338 ;
339 [label="gini = 0.0\nsamples = 1\nvalue = [1, 0]\nclass = s", fillcolor="#e58139"] ;
337 -> 339 ;
340 [label="Age <= 25.5\ngini = 0.499\nsamples = 42\nvalue = [22, 20]\nclass = s", fillcolor="#fdf4ed"] ;
306 -> 340 ;
341 [label="Income <= 390.0\ngini = 0.198\nsamples = 9\nvalue = [1, 8]\nclass = t", fillcolor="#52a9e8"] ;
340 -> 341 ;
342 [label="gini = 0.0\nsamples = 8\nvalue = [0, 8]\nclass = t", fillcolor="#399de5"] ;
341 -> 342 ;
343 [label="gini = 0.0\nsamples = 1\nvalue = [1, 0]\nclass = s", fillcolor="#e58139"] ;
341 -> 343 ;
344 [label="Assets <= 18000.0\ngini = 0.463\nsamples = 33\nvalue = [21, 12]\nclass = s", fillcolor="#f4c9aa"] ;
340 -> 344 ;
345 [label="Amount <= 3437.5\ngini = 0.365\nsamples = 25\nvalue = [19, 6]\nclass = s", fillcolor="#eda978"] ;
344 -> 345 ;
346 [label="Expenses <= 97.5\ngini = 0.33\nsamples = 24\nvalue = [19, 5]\nclass = s", fillcolor="#eca26d"] ;
345 -> 346 ;
347 [label="Seniority <= 2.5\ngini = 0.287\nsamples = 23\nvalue = [19, 4]\nclass = s", fillcolor="#ea9c63"] ;
346 -> 347 ;
348 [label="Income <= 62.5\ngini = 0.188\nsamples = 19\nvalue = [17, 2]\nclass = s", fillcolor="#e89050"] ;
347 -> 348 ;
349 [label="Price <= 1711.0\ngini = 0.48\nsamples = 5\nvalue = [3, 2]\nclass = s", fillcolor="#f6d5bd"] ;
348 -> 349 ;
350 [label="gini = 0.0\nsamples = 2\nvalue = [0, 2]\nclass = t", fillcolor="#399de5"] ;
349 -> 350 ;
351 [label="gini = 0.0\nsamples = 3\nvalue = [3, 0]\nclass = s", fillcolor="#e58139"] ;
349 -> 351 ;
352 [label="gini = 0.0\nsamples = 14\nvalue = [14, 0]\nclass = s", fillcolor="#e58139"] ;
348 -> 352 ;
353 [label="Age <= 43.0\ngini = 0.5\nsamples = 4\nvalue = [2, 2]\nclass = s", fillcolor="#ffffff"] ;
347 -> 353 ;
354 [label="gini = 0.0\nsamples = 2\nvalue = [0, 2]\nclass = t", fillcolor="#399de5"] ;
353 -> 354 ;
355 [label="gini = 0.0\nsamples = 2\nvalue = [2, 0]\nclass = s", fillcolor="#e58139"] ;
353 -> 355 ;
356 [label="gini = 0.0\nsamples = 1\nvalue = [0, 1]\nclass = t", fillcolor="#399de5"] ;
346 -> 356 ;
357 [label="gini = 0.0\nsamples = 1\nvalue = [0, 1]\nclass = t", fillcolor="#399de5"] ;
345 -> 357 ;
358 [label="Income <= 86.0\ngini = 0.375\nsamples = 8\nvalue = [2, 6]\nclass = t", fillcolor="#7bbeee"] ;
344 -> 358 ;
359 [label="gini = 0.0\nsamples = 5\nvalue = [0, 5]\nclass = t", fillcolor="#399de5"] ;
358 -> 359 ;
360 [label="Assets <= 22500.0\ngini = 0.444\nsamples = 3\nvalue = [2, 1]\nclass = s", fillcolor="#f2c09c"] ;
358 -> 360 ;
361 [label="gini = 0.0\nsamples = 1\nvalue = [0, 1]\nclass = t", fillcolor="#399de5"] ;
360 -> 361 ;
362 [label="gini = 0.0\nsamples = 2\nvalue = [2, 0]\nclass = s", fillcolor="#e58139"] ;
360 -> 362 ;
363 [label="Job <= 0.5\ngini = 0.392\nsamples = 157\nvalue = [115, 42]\nclass = s", fillcolor="#eeaf81"] ;
1 -> 363 ;
364 [label="Home <= 0.5\ngini = 0.469\nsamples = 88\nvalue = [55, 33]\nclass = s", fillcolor="#f5cdb0"] ;
363 -> 364 ;
365 [label="Income <= 144.5\ngini = 0.477\nsamples = 28\nvalue = [11, 17]\nclass = t", fillcolor="#b9dcf6"] ;
364 -> 365 ;
366 [label="Debt <= 250.0\ngini = 0.444\nsamples = 12\nvalue = [8, 4]\nclass = s", fillcolor="#f2c09c"] ;
365 -> 366 ;
367 [label="Age <= 41.5\ngini = 0.444\nsamples = 6\nvalue = [2, 4]\nclass = t", fillcolor="#9ccef2"] ;
366 -> 367 ;
368 [label="gini = 0.0\nsamples = 3\nvalue = [0, 3]\nclass = t", fillcolor="#399de5"] ;
367 -> 368 ;
369 [label="Income <= 74.0\ngini = 0.444\nsamples = 3\nvalue = [2, 1]\nclass = s", fillcolor="#f2c09c"] ;
367 -> 369 ;
370 [label="gini = 0.0\nsamples = 1\nvalue = [0, 1]\nclass = t", fillcolor="#399de5"] ;
369 -> 370 ;
371 [label="gini = 0.0\nsamples = 2\nvalue = [2, 0]\nclass = s", fillcolor="#e58139"] ;
369 -> 371 ;
372 [label="gini = 0.0\nsamples = 6\nvalue = [6, 0]\nclass = s", fillcolor="#e58139"] ;
366 -> 372 ;
373 [label="Amount <= 1900.0\ngini = 0.305\nsamples = 16\nvalue = [3, 13]\nclass = t", fillcolor="#67b4eb"] ;
365 -> 373 ;
374 [label="Expenses <= 97.5\ngini = 0.231\nsamples = 15\nvalue = [2, 13]\nclass = t", fillcolor="#57ace9"] ;
373 -> 374 ;
375 [label="Income <= 331.0\ngini = 0.133\nsamples = 14\nvalue = [1, 13]\nclass = t", fillcolor="#48a5e7"] ;
374 -> 375 ;
376 [label="gini = 0.0\nsamples = 12\nvalue = [0, 12]\nclass = t", fillcolor="#399de5"] ;
375 -> 376 ;
377 [label="Seniority <= 1.0\ngini = 0.5\nsamples = 2\nvalue = [1, 1]\nclass = s", fillcolor="#ffffff"] ;
375 -> 377 ;
378 [label="gini = 0.0\nsamples = 1\nvalue = [0, 1]\nclass = t", fillcolor="#399de5"] ;
377 -> 378 ;
379 [label="gini = 0.0\nsamples = 1\nvalue = [1, 0]\nclass = s", fillcolor="#e58139"] ;
377 -> 379 ;
380 [label="gini = 0.0\nsamples = 1\nvalue = [1, 0]\nclass = s", fillcolor="#e58139"] ;
374 -> 380 ;
381 [label="gini = 0.0\nsamples = 1\nvalue = [1, 0]\nclass = s", fillcolor="#e58139"] ;
373 -> 381 ;
382 [label="Age <= 34.5\ngini = 0.391\nsamples = 60\nvalue = [44, 16]\nclass = s", fillcolor="#eeaf81"] ;
364 -> 382 ;
383 [label="Price <= 1284.0\ngini = 0.488\nsamples = 26\nvalue = [15, 11]\nclass = s", fillcolor="#f8ddca"] ;
382 -> 383 ;
384 [label="Age <= 24.5\ngini = 0.32\nsamples = 10\nvalue = [2, 8]\nclass = t", fillcolor="#6ab6ec"] ;
383 -> 384 ;
385 [label="gini = 0.0\nsamples = 2\nvalue = [2, 0]\nclass = s", fillcolor="#e58139"] ;
384 -> 385 ;
386 [label="gini = 0.0\nsamples = 8\nvalue = [0, 8]\nclass = t", fillcolor="#399de5"] ;
384 -> 386 ;
387 [label="Age <= 23.5\ngini = 0.305\nsamples = 16\nvalue = [13, 3]\nclass = s", fillcolor="#eb9e67"] ;
383 -> 387 ;
388 [label="gini = 0.0\nsamples = 2\nvalue = [0, 2]\nclass = t", fillcolor="#399de5"] ;
387 -> 388 ;
389 [label="Time <= 45.0\ngini = 0.133\nsamples = 14\nvalue = [13, 1]\nclass = s", fillcolor="#e78b48"] ;
387 -> 389 ;
390 [label="Marital <= 0.5\ngini = 0.5\nsamples = 2\nvalue = [1, 1]\nclass = s", fillcolor="#ffffff"] ;
389 -> 390 ;
391 [label="gini = 0.0\nsamples = 1\nvalue = [0, 1]\nclass = t", fillcolor="#399de5"] ;
390 -> 391 ;
392 [label="gini = 0.0\nsamples = 1\nvalue = [1, 0]\nclass = s", fillcolor="#e58139"] ;
390 -> 392 ;
393 [label="gini = 0.0\nsamples = 12\nvalue = [12, 0]\nclass = s", fillcolor="#e58139"] ;
389 -> 393 ;
394 [label="Age <= 54.0\ngini = 0.251\nsamples = 34\nvalue = [29, 5]\nclass = s", fillcolor="#e9975b"] ;
382 -> 394 ;
395 [label="Price <= 2571.0\ngini = 0.213\nsamples = 33\nvalue = [29, 4]\nclass = s", fillcolor="#e99254"] ;
394 -> 395 ;
396 [label="Time <= 54.0\ngini = 0.128\nsamples = 29\nvalue = [27, 2]\nclass = s", fillcolor="#e78a48"] ;
395 -> 396 ;
397 [label="gini = 0.0\nsamples = 15\nvalue = [15, 0]\nclass = s", fillcolor="#e58139"] ;
396 -> 397 ;
398 [label="Amount <= 1050.0\ngini = 0.245\nsamples = 14\nvalue = [12, 2]\nclass = s", fillcolor="#e9965a"] ;
396 -> 398 ;
399 [label="Income <= 85.0\ngini = 0.5\nsamples = 2\nvalue = [1, 1]\nclass = s", fillcolor="#ffffff"] ;
398 -> 399 ;
400 [label="gini = 0.0\nsamples = 1\nvalue = [0, 1]\nclass = t", fillcolor="#399de5"] ;
399 -> 400 ;
401 [label="gini = 0.0\nsamples = 1\nvalue = [1, 0]\nclass = s", fillcolor="#e58139"] ;
399 -> 401 ;
402 [label="Income <= 215.0\ngini = 0.153\nsamples = 12\nvalue = [11, 1]\nclass = s", fillcolor="#e78c4b"] ;
398 -> 402 ;
403 [label="gini = 0.0\nsamples = 10\nvalue = [10, 0]\nclass = s", fillcolor="#e58139"] ;
402 -> 403 ;
404 [label="Seniority <= 2.0\ngini = 0.5\nsamples = 2\nvalue = [1, 1]\nclass = s", fillcolor="#ffffff"] ;
402 -> 404 ;
405 [label="gini = 0.0\nsamples = 1\nvalue = [0, 1]\nclass = t", fillcolor="#399de5"] ;
404 -> 405 ;
406 [label="gini = 0.0\nsamples = 1\nvalue = [1, 0]\nclass = s", fillcolor="#e58139"] ;
404 -> 406 ;
407 [label="Amount <= 2900.0\ngini = 0.5\nsamples = 4\nvalue = [2, 2]\nclass = s", fillcolor="#ffffff"] ;
395 -> 407 ;
408 [label="gini = 0.0\nsamples = 2\nvalue = [0, 2]\nclass = t", fillcolor="#399de5"] ;
407 -> 408 ;
409 [label="gini = 0.0\nsamples = 2\nvalue = [2, 0]\nclass = s", fillcolor="#e58139"] ;
407 -> 409 ;
410 [label="gini = 0.0\nsamples = 1\nvalue = [0, 1]\nclass = t", fillcolor="#399de5"] ;
394 -> 410 ;
411 [label="Amount <= 925.0\ngini = 0.227\nsamples = 69\nvalue = [60, 9]\nclass = s", fillcolor="#e99457"] ;
363 -> 411 ;
412 [label="Amount <= 775.0\ngini = 0.415\nsamples = 17\nvalue = [12, 5]\nclass = s", fillcolor="#f0b58b"] ;
411 -> 412 ;
413 [label="Price <= 562.5\ngini = 0.165\nsamples = 11\nvalue = [10, 1]\nclass = s", fillcolor="#e88e4d"] ;
412 -> 413 ;
414 [label="Price <= 512.5\ngini = 0.444\nsamples = 3\nvalue = [2, 1]\nclass = s", fillcolor="#f2c09c"] ;
413 -> 414 ;
415 [label="gini = 0.0\nsamples = 2\nvalue = [2, 0]\nclass = s", fillcolor="#e58139"] ;
414 -> 415 ;
416 [label="gini = 0.0\nsamples = 1\nvalue = [0, 1]\nclass = t", fillcolor="#399de5"] ;
414 -> 416 ;
417 [label="gini = 0.0\nsamples = 8\nvalue = [8, 0]\nclass = s", fillcolor="#e58139"] ;
413 -> 417 ;
418 [label="Expenses <= 67.5\ngini = 0.444\nsamples = 6\nvalue = [2, 4]\nclass = t", fillcolor="#9ccef2"] ;
412 -> 418 ;
419 [label="gini = 0.0\nsamples = 3\nvalue = [0, 3]\nclass = t", fillcolor="#399de5"] ;
418 -> 419 ;
420 [label="Home <= 0.5\ngini = 0.444\nsamples = 3\nvalue = [2, 1]\nclass = s", fillcolor="#f2c09c"] ;
418 -> 420 ;
421 [label="gini = 0.0\nsamples = 1\nvalue = [0, 1]\nclass = t", fillcolor="#399de5"] ;
420 -> 421 ;
422 [label="gini = 0.0\nsamples = 2\nvalue = [2, 0]\nclass = s", fillcolor="#e58139"] ;
420 -> 422 ;
423 [label="Age <= 57.5\ngini = 0.142\nsamples = 52\nvalue = [48, 4]\nclass = s", fillcolor="#e78c49"] ;
411 -> 423 ;
424 [label="Price <= 1651.5\ngini = 0.113\nsamples = 50\nvalue = [47, 3]\nclass = s", fillcolor="#e78946"] ;
423 -> 424 ;
425 [label="gini = 0.0\nsamples = 24\nvalue = [24, 0]\nclass = s", fillcolor="#e58139"] ;
424 -> 425 ;
426 [label="Price <= 1665.5\ngini = 0.204\nsamples = 26\nvalue = [23, 3]\nclass = s", fillcolor="#e89153"] ;
424 -> 426 ;
427 [label="gini = 0.0\nsamples = 1\nvalue = [0, 1]\nclass = t", fillcolor="#399de5"] ;
426 -> 427 ;
428 [label="Age <= 32.0\ngini = 0.147\nsamples = 25\nvalue = [23, 2]\nclass = s", fillcolor="#e78c4a"] ;
426 -> 428 ;
429 [label="Time <= 42.0\ngini = 0.375\nsamples = 8\nvalue = [6, 2]\nclass = s", fillcolor="#eeab7b"] ;
428 -> 429 ;
430 [label="gini = 0.0\nsamples = 1\nvalue = [0, 1]\nclass = t", fillcolor="#399de5"] ;
429 -> 430 ;
431 [label="Age <= 28.0\ngini = 0.245\nsamples = 7\nvalue = [6, 1]\nclass = s", fillcolor="#e9965a"] ;
429 -> 431 ;
432 [label="gini = 0.0\nsamples = 5\nvalue = [5, 0]\nclass = s", fillcolor="#e58139"] ;
431 -> 432 ;
433 [label="Assets <= 4500.0\ngini = 0.5\nsamples = 2\nvalue = [1, 1]\nclass = s", fillcolor="#ffffff"] ;
431 -> 433 ;
434 [label="gini = 0.0\nsamples = 1\nvalue = [0, 1]\nclass = t", fillcolor="#399de5"] ;
433 -> 434 ;
435 [label="gini = 0.0\nsamples = 1\nvalue = [1, 0]\nclass = s", fillcolor="#e58139"] ;
433 -> 435 ;
436 [label="gini = 0.0\nsamples = 17\nvalue = [17, 0]\nclass = s", fillcolor="#e58139"] ;
428 -> 436 ;
437 [label="Age <= 61.5\ngini = 0.5\nsamples = 2\nvalue = [1, 1]\nclass = s", fillcolor="#ffffff"] ;
423 -> 437 ;
438 [label="gini = 0.0\nsamples = 1\nvalue = [0, 1]\nclass = t", fillcolor="#399de5"] ;
437 -> 438 ;
439 [label="gini = 0.0\nsamples = 1\nvalue = [1, 0]\nclass = s", fillcolor="#e58139"] ;
437 -> 439 ;
440 [label="Records <= 1.5\ngini = 0.286\nsamples = 1281\nvalue = [221, 1060]\nclass = t", fillcolor="#62b1ea"] ;
0 -> 440 [labeldistance=2.5, labelangle=-45, headlabel="False"] ;
441 [label="Income <= 96.5\ngini = 0.221\nsamples = 1089\nvalue = [138, 951]\nclass = t", fillcolor="#56abe9"] ;
440 -> 441 ;
442 [label="Assets <= 4250.0\ngini = 0.384\nsamples = 305\nvalue = [79, 226]\nclass = t", fillcolor="#7ebfee"] ;
441 -> 442 ;
443 [label="Amount <= 1162.5\ngini = 0.454\nsamples = 195\nvalue = [68, 127]\nclass = t", fillcolor="#a3d1f3"] ;
442 -> 443 ;
444 [label="Price <= 928.5\ngini = 0.398\nsamples = 142\nvalue = [39, 103]\nclass = t", fillcolor="#84c2ef"] ;
443 -> 444 ;
445 [label="Age <= 27.5\ngini = 0.498\nsamples = 34\nvalue = [18, 16]\nclass = s", fillcolor="#fcf1e9"] ;
444 -> 445 ;
446 [label="Amount <= 162.5\ngini = 0.32\nsamples = 10\nvalue = [8, 2]\nclass = s", fillcolor="#eca06a"] ;
445 -> 446 ;
447 [label="gini = 0.0\nsamples = 1\nvalue = [0, 1]\nclass = t", fillcolor="#399de5"] ;
446 -> 447 ;
448 [label="Income <= 55.5\ngini = 0.198\nsamples = 9\nvalue = [8, 1]\nclass = s", fillcolor="#e89152"] ;
446 -> 448 ;
449 [label="Time <= 48.0\ngini = 0.5\nsamples = 2\nvalue = [1, 1]\nclass = s", fillcolor="#ffffff"] ;
448 -> 449 ;
450 [label="gini = 0.0\nsamples = 1\nvalue = [1, 0]\nclass = s", fillcolor="#e58139"] ;
449 -> 450 ;
451 [label="gini = 0.0\nsamples = 1\nvalue = [0, 1]\nclass = t", fillcolor="#399de5"] ;
449 -> 451 ;
452 [label="gini = 0.0\nsamples = 7\nvalue = [7, 0]\nclass = s", fillcolor="#e58139"] ;
448 -> 452 ;
453 [label="Marital <= 0.5\ngini = 0.486\nsamples = 24\nvalue = [10, 14]\nclass = t", fillcolor="#c6e3f8"] ;
445 -> 453 ;
454 [label="Seniority <= 5.5\ngini = 0.484\nsamples = 17\nvalue = [10, 7]\nclass = s", fillcolor="#f7d9c4"] ;
453 -> 454 ;
455 [label="Price <= 367.5\ngini = 0.32\nsamples = 5\nvalue = [1, 4]\nclass = t", fillcolor="#6ab6ec"] ;
454 -> 455 ;
456 [label="Age <= 41.5\ngini = 0.5\nsamples = 2\nvalue = [1, 1]\nclass = s", fillcolor="#ffffff"] ;
455 -> 456 ;
457 [label="gini = 0.0\nsamples = 1\nvalue = [0, 1]\nclass = t", fillcolor="#399de5"] ;
456 -> 457 ;
458 [label="gini = 0.0\nsamples = 1\nvalue = [1, 0]\nclass = s", fillcolor="#e58139"] ;
456 -> 458 ;
459 [label="gini = 0.0\nsamples = 3\nvalue = [0, 3]\nclass = t", fillcolor="#399de5"] ;
455 -> 459 ;
460 [label="Income <= 70.0\ngini = 0.375\nsamples = 12\nvalue = [9, 3]\nclass = s", fillcolor="#eeab7b"] ;
454 -> 460 ;
461 [label="gini = 0.0\nsamples = 6\nvalue = [6, 0]\nclass = s", fillcolor="#e58139"] ;
460 -> 461 ;
462 [label="Debt <= 50.0\ngini = 0.5\nsamples = 6\nvalue = [3, 3]\nclass = s", fillcolor="#ffffff"] ;
460 -> 462 ;
463 [label="Age <= 55.0\ngini = 0.375\nsamples = 4\nvalue = [1, 3]\nclass = t", fillcolor="#7bbeee"] ;
462 -> 463 ;
464 [label="gini = 0.0\nsamples = 3\nvalue = [0, 3]\nclass = t", fillcolor="#399de5"] ;
463 -> 464 ;
465 [label="gini = 0.0\nsamples = 1\nvalue = [1, 0]\nclass = s", fillcolor="#e58139"] ;
463 -> 465 ;
466 [label="gini = 0.0\nsamples = 2\nvalue = [2, 0]\nclass = s", fillcolor="#e58139"] ;
462 -> 466 ;
467 [label="gini = 0.0\nsamples = 7\nvalue = [0, 7]\nclass = t", fillcolor="#399de5"] ;
453 -> 467 ;
468 [label="Seniority <= 11.5\ngini = 0.313\nsamples = 108\nvalue = [21, 87]\nclass = t", fillcolor="#69b5eb"] ;
444 -> 468 ;
469 [label="Debt <= 675.0\ngini = 0.405\nsamples = 71\nvalue = [20, 51]\nclass = t", fillcolor="#87c3ef"] ;
468 -> 469 ;
470 [label="Job <= 0.5\ngini = 0.386\nsamples = 69\nvalue = [18, 51]\nclass = t", fillcolor="#7fc0ee"] ;
469 -> 470 ;
471 [label="Income <= 50.5\ngini = 0.25\nsamples = 41\nvalue = [6, 35]\nclass = t", fillcolor="#5baee9"] ;
470 -> 471 ;
472 [label="gini = 0.0\nsamples = 1\nvalue = [1, 0]\nclass = s", fillcolor="#e58139"] ;
471 -> 472 ;
473 [label="Age <= 27.5\ngini = 0.219\nsamples = 40\nvalue = [5, 35]\nclass = t", fillcolor="#55abe9"] ;
471 -> 473 ;
474 [label="Income <= 80.5\ngini = 0.346\nsamples = 18\nvalue = [4, 14]\nclass = t", fillcolor="#72b9ec"] ;
473 -> 474 ;
475 [label="Expenses <= 48.0\ngini = 0.153\nsamples = 12\nvalue = [1, 11]\nclass = t", fillcolor="#4ba6e7"] ;
474 -> 475 ;
476 [label="gini = 0.0\nsamples = 11\nvalue = [0, 11]\nclass = t", fillcolor="#399de5"] ;
475 -> 476 ;
477 [label="gini = 0.0\nsamples = 1\nvalue = [1, 0]\nclass = s", fillcolor="#e58139"] ;
475 -> 477 ;
478 [label="Assets <= 2750.0\ngini = 0.5\nsamples = 6\nvalue = [3, 3]\nclass = s", fillcolor="#ffffff"] ;
474 -> 478 ;
479 [label="Price <= 1143.0\ngini = 0.375\nsamples = 4\nvalue = [3, 1]\nclass = s", fillcolor="#eeab7b"] ;
478 -> 479 ;
480 [label="gini = 0.0\nsamples = 1\nvalue = [0, 1]\nclass = t", fillcolor="#399de5"] ;
479 -> 480 ;
481 [label="gini = 0.0\nsamples = 3\nvalue = [3, 0]\nclass = s", fillcolor="#e58139"] ;
479 -> 481 ;
482 [label="gini = 0.0\nsamples = 2\nvalue = [0, 2]\nclass = t", fillcolor="#399de5"] ;
478 -> 482 ;
483 [label="Age <= 56.5\ngini = 0.087\nsamples = 22\nvalue = [1, 21]\nclass = t", fillcolor="#42a2e6"] ;
473 -> 483 ;
484 [label="gini = 0.0\nsamples = 20\nvalue = [0, 20]\nclass = t", fillcolor="#399de5"] ;
483 -> 484 ;
485 [label="Amount <= 825.0\ngini = 0.5\nsamples = 2\nvalue = [1, 1]\nclass = s", fillcolor="#ffffff"] ;
483 -> 485 ;
486 [label="gini = 0.0\nsamples = 1\nvalue = [0, 1]\nclass = t", fillcolor="#399de5"] ;
485 -> 486 ;
487 [label="gini = 0.0\nsamples = 1\nvalue = [1, 0]\nclass = s", fillcolor="#e58139"] ;
485 -> 487 ;
488 [label="Amount <= 550.0\ngini = 0.49\nsamples = 28\nvalue = [12, 16]\nclass = t", fillcolor="#cee6f8"] ;
470 -> 488 ;
489 [label="Assets <= 3000.0\ngini = 0.32\nsamples = 5\nvalue = [4, 1]\nclass = s", fillcolor="#eca06a"] ;
488 -> 489 ;
490 [label="gini = 0.0\nsamples = 4\nvalue = [4, 0]\nclass = s", fillcolor="#e58139"] ;
489 -> 490 ;
491 [label="gini = 0.0\nsamples = 1\nvalue = [0, 1]\nclass = t", fillcolor="#399de5"] ;
489 -> 491 ;
492 [label="Amount <= 887.5\ngini = 0.454\nsamples = 23\nvalue = [8, 15]\nclass = t", fillcolor="#a3d1f3"] ;
488 -> 492 ;
493 [label="gini = 0.0\nsamples = 8\nvalue = [0, 8]\nclass = t", fillcolor="#399de5"] ;
492 -> 493 ;
494 [label="Price <= 1207.0\ngini = 0.498\nsamples = 15\nvalue = [8, 7]\nclass = s", fillcolor="#fcefe6"] ;
492 -> 494 ;
495 [label="Age <= 25.5\ngini = 0.278\nsamples = 6\nvalue = [5, 1]\nclass = s", fillcolor="#ea9a61"] ;
494 -> 495 ;
496 [label="Time <= 48.0\ngini = 0.5\nsamples = 2\nvalue = [1, 1]\nclass = s", fillcolor="#ffffff"] ;
495 -> 496 ;
497 [label="gini = 0.0\nsamples = 1\nvalue = [1, 0]\nclass = s", fillcolor="#e58139"] ;
496 -> 497 ;
498 [label="gini = 0.0\nsamples = 1\nvalue = [0, 1]\nclass = t", fillcolor="#399de5"] ;
496 -> 498 ;
499 [label="gini = 0.0\nsamples = 4\nvalue = [4, 0]\nclass = s", fillcolor="#e58139"] ;
495 -> 499 ;
500 [label="Marital <= 0.5\ngini = 0.444\nsamples = 9\nvalue = [3, 6]\nclass = t", fillcolor="#9ccef2"] ;
494 -> 500 ;
501 [label="Income <= 86.0\ngini = 0.245\nsamples = 7\nvalue = [1, 6]\nclass = t", fillcolor="#5aade9"] ;
500 -> 501 ;
502 [label="gini = 0.0\nsamples = 6\nvalue = [0, 6]\nclass = t", fillcolor="#399de5"] ;
501 -> 502 ;
503 [label="gini = 0.0\nsamples = 1\nvalue = [1, 0]\nclass = s", fillcolor="#e58139"] ;
501 -> 503 ;
504 [label="gini = 0.0\nsamples = 2\nvalue = [2, 0]\nclass = s", fillcolor="#e58139"] ;
500 -> 504 ;
505 [label="gini = 0.0\nsamples = 2\nvalue = [2, 0]\nclass = s", fillcolor="#e58139"] ;
469 -> 505 ;
506 [label="Debt <= 1300.0\ngini = 0.053\nsamples = 37\nvalue = [1, 36]\nclass = t", fillcolor="#3ea0e6"] ;
468 -> 506 ;
507 [label="gini = 0.0\nsamples = 36\nvalue = [0, 36]\nclass = t", fillcolor="#399de5"] ;
506 -> 507 ;
508 [label="gini = 0.0\nsamples = 1\nvalue = [1, 0]\nclass = s", fillcolor="#e58139"] ;
506 -> 508 ;
509 [label="Expenses <= 71.0\ngini = 0.496\nsamples = 53\nvalue = [29, 24]\nclass = s", fillcolor="#fbe9dd"] ;
443 -> 509 ;
510 [label="Income <= 65.5\ngini = 0.493\nsamples = 41\nvalue = [18, 23]\nclass = t", fillcolor="#d4eaf9"] ;
509 -> 510 ;
511 [label="Time <= 42.0\ngini = 0.298\nsamples = 11\nvalue = [9, 2]\nclass = s", fillcolor="#eb9d65"] ;
510 -> 511 ;
512 [label="Age <= 25.0\ngini = 0.444\nsamples = 3\nvalue = [1, 2]\nclass = t", fillcolor="#9ccef2"] ;
511 -> 512 ;
513 [label="gini = 0.0\nsamples = 1\nvalue = [1, 0]\nclass = s", fillcolor="#e58139"] ;
512 -> 513 ;
514 [label="gini = 0.0\nsamples = 2\nvalue = [0, 2]\nclass = t", fillcolor="#399de5"] ;
512 -> 514 ;
515 [label="gini = 0.0\nsamples = 8\nvalue = [8, 0]\nclass = s", fillcolor="#e58139"] ;
511 -> 515 ;
516 [label="Age <= 44.5\ngini = 0.42\nsamples = 30\nvalue = [9, 21]\nclass = t", fillcolor="#8ec7f0"] ;
510 -> 516 ;
517 [label="Age <= 32.0\ngini = 0.476\nsamples = 23\nvalue = [9, 14]\nclass = t", fillcolor="#b8dcf6"] ;
516 -> 517 ;
518 [label="Age <= 26.0\ngini = 0.26\nsamples = 13\nvalue = [2, 11]\nclass = t", fillcolor="#5dafea"] ;
517 -> 518 ;
519 [label="Price <= 1645.5\ngini = 0.48\nsamples = 5\nvalue = [2, 3]\nclass = t", fillcolor="#bddef6"] ;
518 -> 519 ;
520 [label="gini = 0.0\nsamples = 3\nvalue = [0, 3]\nclass = t", fillcolor="#399de5"] ;
519 -> 520 ;
521 [label="gini = 0.0\nsamples = 2\nvalue = [2, 0]\nclass = s", fillcolor="#e58139"] ;
519 -> 521 ;
522 [label="gini = 0.0\nsamples = 8\nvalue = [0, 8]\nclass = t", fillcolor="#399de5"] ;
518 -> 522 ;
523 [label="Price <= 1577.5\ngini = 0.42\nsamples = 10\nvalue = [7, 3]\nclass = s", fillcolor="#f0b78e"] ;
517 -> 523 ;
524 [label="Income <= 68.0\ngini = 0.5\nsamples = 6\nvalue = [3, 3]\nclass = s", fillcolor="#ffffff"] ;
523 -> 524 ;
525 [label="gini = 0.0\nsamples = 1\nvalue = [0, 1]\nclass = t", fillcolor="#399de5"] ;
524 -> 525 ;
526 [label="Assets <= 1250.0\ngini = 0.48\nsamples = 5\nvalue = [3, 2]\nclass = s", fillcolor="#f6d5bd"] ;
524 -> 526 ;
527 [label="gini = 0.0\nsamples = 2\nvalue = [2, 0]\nclass = s", fillcolor="#e58139"] ;
526 -> 527 ;
528 [label="Price <= 1322.5\ngini = 0.444\nsamples = 3\nvalue = [1, 2]\nclass = t", fillcolor="#9ccef2"] ;
526 -> 528 ;
529 [label="gini = 0.0\nsamples = 1\nvalue = [1, 0]\nclass = s", fillcolor="#e58139"] ;
528 -> 529 ;
530 [label="gini = 0.0\nsamples = 2\nvalue = [0, 2]\nclass = t", fillcolor="#399de5"] ;
528 -> 530 ;
531 [label="gini = 0.0\nsamples = 4\nvalue = [4, 0]\nclass = s", fillcolor="#e58139"] ;
523 -> 531 ;
532 [label="gini = 0.0\nsamples = 7\nvalue = [0, 7]\nclass = t", fillcolor="#399de5"] ;
516 -> 532 ;
533 [label="Income <= 84.0\ngini = 0.153\nsamples = 12\nvalue = [11, 1]\nclass = s", fillcolor="#e78c4b"] ;
509 -> 533 ;
534 [label="gini = 0.0\nsamples = 9\nvalue = [9, 0]\nclass = s", fillcolor="#e58139"] ;
533 -> 534 ;
535 [label="Income <= 86.0\ngini = 0.444\nsamples = 3\nvalue = [2, 1]\nclass = s", fillcolor="#f2c09c"] ;
533 -> 535 ;
536 [label="gini = 0.0\nsamples = 1\nvalue = [0, 1]\nclass = t", fillcolor="#399de5"] ;
535 -> 536 ;
537 [label="gini = 0.0\nsamples = 2\nvalue = [2, 0]\nclass = s", fillcolor="#e58139"] ;
535 -> 537 ;
538 [label="Amount <= 1115.0\ngini = 0.18\nsamples = 110\nvalue = [11, 99]\nclass = t", fillcolor="#4fa8e8"] ;
442 -> 538 ;
539 [label="Expenses <= 71.0\ngini = 0.029\nsamples = 67\nvalue = [1, 66]\nclass = t", fillcolor="#3c9ee5"] ;
538 -> 539 ;
540 [label="gini = 0.0\nsamples = 51\nvalue = [0, 51]\nclass = t", fillcolor="#399de5"] ;
539 -> 540 ;
541 [label="Seniority <= 7.0\ngini = 0.117\nsamples = 16\nvalue = [1, 15]\nclass = t", fillcolor="#46a4e7"] ;
539 -> 541 ;
542 [label="Price <= 1184.5\ngini = 0.444\nsamples = 3\nvalue = [1, 2]\nclass = t", fillcolor="#9ccef2"] ;
541 -> 542 ;
543 [label="gini = 0.0\nsamples = 1\nvalue = [1, 0]\nclass = s", fillcolor="#e58139"] ;
542 -> 543 ;
544 [label="gini = 0.0\nsamples = 2\nvalue = [0, 2]\nclass = t", fillcolor="#399de5"] ;
542 -> 544 ;
545 [label="gini = 0.0\nsamples = 13\nvalue = [0, 13]\nclass = t", fillcolor="#399de5"] ;
541 -> 545 ;
546 [label="Job <= 0.5\ngini = 0.357\nsamples = 43\nvalue = [10, 33]\nclass = t", fillcolor="#75bbed"] ;
538 -> 546 ;
547 [label="Price <= 1405.5\ngini = 0.488\nsamples = 19\nvalue = [8, 11]\nclass = t", fillcolor="#c9e4f8"] ;
546 -> 547 ;
548 [label="gini = 0.0\nsamples = 2\nvalue = [2, 0]\nclass = s", fillcolor="#e58139"] ;
547 -> 548 ;
549 [label="Income <= 90.0\ngini = 0.457\nsamples = 17\nvalue = [6, 11]\nclass = t", fillcolor="#a5d2f3"] ;
547 -> 549 ;
550 [label="Income <= 64.5\ngini = 0.391\nsamples = 15\nvalue = [4, 11]\nclass = t", fillcolor="#81c1ee"] ;
549 -> 550 ;
551 [label="Price <= 2395.5\ngini = 0.48\nsamples = 5\nvalue = [3, 2]\nclass = s", fillcolor="#f6d5bd"] ;
550 -> 551 ;
552 [label="gini = 0.0\nsamples = 3\nvalue = [3, 0]\nclass = s", fillcolor="#e58139"] ;
551 -> 552 ;
553 [label="gini = 0.0\nsamples = 2\nvalue = [0, 2]\nclass = t", fillcolor="#399de5"] ;
551 -> 553 ;
554 [label="Seniority <= 27.5\ngini = 0.18\nsamples = 10\nvalue = [1, 9]\nclass = t", fillcolor="#4fa8e8"] ;
550 -> 554 ;
555 [label="gini = 0.0\nsamples = 9\nvalue = [0, 9]\nclass = t", fillcolor="#399de5"] ;
554 -> 555 ;
556 [label="gini = 0.0\nsamples = 1\nvalue = [1, 0]\nclass = s", fillcolor="#e58139"] ;
554 -> 556 ;
557 [label="gini = 0.0\nsamples = 2\nvalue = [2, 0]\nclass = s", fillcolor="#e58139"] ;
549 -> 557 ;
558 [label="Assets <= 62500.0\ngini = 0.153\nsamples = 24\nvalue = [2, 22]\nclass = t", fillcolor="#4ba6e7"] ;
546 -> 558 ;
559 [label="Age <= 57.0\ngini = 0.083\nsamples = 23\nvalue = [1, 22]\nclass = t", fillcolor="#42a1e6"] ;
558 -> 559 ;
560 [label="gini = 0.0\nsamples = 20\nvalue = [0, 20]\nclass = t", fillcolor="#399de5"] ;
559 -> 560 ;
561 [label="Assets <= 15500.0\ngini = 0.444\nsamples = 3\nvalue = [1, 2]\nclass = t", fillcolor="#9ccef2"] ;
559 -> 561 ;
562 [label="gini = 0.0\nsamples = 1\nvalue = [1, 0]\nclass = s", fillcolor="#e58139"] ;
561 -> 562 ;
563 [label="gini = 0.0\nsamples = 2\nvalue = [0, 2]\nclass = t", fillcolor="#399de5"] ;
561 -> 563 ;
564 [label="gini = 0.0\nsamples = 1\nvalue = [1, 0]\nclass = s", fillcolor="#e58139"] ;
558 -> 564 ;
565 [label="Amount <= 1530.0\ngini = 0.139\nsamples = 784\nvalue = [59, 725]\nclass = t", fillcolor="#49a5e7"] ;
441 -> 565 ;
566 [label="Seniority <= 5.5\ngini = 0.114\nsamples = 706\nvalue = [43, 663]\nclass = t", fillcolor="#46a3e7"] ;
565 -> 566 ;
567 [label="Assets <= 2050.0\ngini = 0.262\nsamples = 116\nvalue = [18, 98]\nclass = t", fillcolor="#5dafea"] ;
566 -> 567 ;
568 [label="Income <= 161.5\ngini = 0.398\nsamples = 51\nvalue = [14, 37]\nclass = t", fillcolor="#84c2ef"] ;
567 -> 568 ;
569 [label="Assets <= 500.0\ngini = 0.456\nsamples = 37\nvalue = [13, 24]\nclass = t", fillcolor="#a4d2f3"] ;
568 -> 569 ;
570 [label="Price <= 1575.0\ngini = 0.415\nsamples = 34\nvalue = [10, 24]\nclass = t", fillcolor="#8bc6f0"] ;
569 -> 570 ;
571 [label="Amount <= 1275.0\ngini = 0.476\nsamples = 23\nvalue = [9, 14]\nclass = t", fillcolor="#b8dcf6"] ;
570 -> 571 ;
572 [label="Age <= 28.5\ngini = 0.444\nsamples = 21\nvalue = [7, 14]\nclass = t", fillcolor="#9ccef2"] ;
571 -> 572 ;
573 [label="Age <= 22.5\ngini = 0.5\nsamples = 12\nvalue = [6, 6]\nclass = s", fillcolor="#ffffff"] ;
572 -> 573 ;
574 [label="gini = 0.0\nsamples = 2\nvalue = [0, 2]\nclass = t", fillcolor="#399de5"] ;
573 -> 574 ;
575 [label="Time <= 42.0\ngini = 0.48\nsamples = 10\nvalue = [6, 4]\nclass = s", fillcolor="#f6d5bd"] ;
573 -> 575 ;
576 [label="Age <= 26.5\ngini = 0.32\nsamples = 5\nvalue = [4, 1]\nclass = s", fillcolor="#eca06a"] ;
575 -> 576 ;
577 [label="gini = 0.0\nsamples = 3\nvalue = [3, 0]\nclass = s", fillcolor="#e58139"] ;
576 -> 577 ;
578 [label="Income <= 113.0\ngini = 0.5\nsamples = 2\nvalue = [1, 1]\nclass = s", fillcolor="#ffffff"] ;
576 -> 578 ;
579 [label="gini = 0.0\nsamples = 1\nvalue = [0, 1]\nclass = t", fillcolor="#399de5"] ;
578 -> 579 ;
580 [label="gini = 0.0\nsamples = 1\nvalue = [1, 0]\nclass = s", fillcolor="#e58139"] ;
578 -> 580 ;
581 [label="Price <= 1292.0\ngini = 0.48\nsamples = 5\nvalue = [2, 3]\nclass = t", fillcolor="#bddef6"] ;
575 -> 581 ;
582 [label="gini = 0.0\nsamples = 2\nvalue = [0, 2]\nclass = t", fillcolor="#399de5"] ;
581 -> 582 ;
583 [label="Amount <= 1175.0\ngini = 0.444\nsamples = 3\nvalue = [2, 1]\nclass = s", fillcolor="#f2c09c"] ;
581 -> 583 ;
584 [label="gini = 0.0\nsamples = 2\nvalue = [2, 0]\nclass = s", fillcolor="#e58139"] ;
583 -> 584 ;
585 [label="gini = 0.0\nsamples = 1\nvalue = [0, 1]\nclass = t", fillcolor="#399de5"] ;
583 -> 585 ;
586 [label="Income <= 105.5\ngini = 0.198\nsamples = 9\nvalue = [1, 8]\nclass = t", fillcolor="#52a9e8"] ;
572 -> 586 ;
587 [label="Price <= 1000.0\ngini = 0.5\nsamples = 2\nvalue = [1, 1]\nclass = s", fillcolor="#ffffff"] ;
586 -> 587 ;
588 [label="gini = 0.0\nsamples = 1\nvalue = [0, 1]\nclass = t", fillcolor="#399de5"] ;
587 -> 588 ;
589 [label="gini = 0.0\nsamples = 1\nvalue = [1, 0]\nclass = s", fillcolor="#e58139"] ;
587 -> 589 ;
590 [label="gini = 0.0\nsamples = 7\nvalue = [0, 7]\nclass = t", fillcolor="#399de5"] ;
586 -> 590 ;
591 [label="gini = 0.0\nsamples = 2\nvalue = [2, 0]\nclass = s", fillcolor="#e58139"] ;
571 -> 591 ;
592 [label="Marital <= 0.5\ngini = 0.165\nsamples = 11\nvalue = [1, 10]\nclass = t", fillcolor="#4da7e8"] ;
570 -> 592 ;
593 [label="gini = 0.0\nsamples = 8\nvalue = [0, 8]\nclass = t", fillcolor="#399de5"] ;
592 -> 593 ;
594 [label="Price <= 2075.0\ngini = 0.444\nsamples = 3\nvalue = [1, 2]\nclass = t", fillcolor="#9ccef2"] ;
592 -> 594 ;
595 [label="gini = 0.0\nsamples = 1\nvalue = [1, 0]\nclass = s", fillcolor="#e58139"] ;
594 -> 595 ;
596 [label="gini = 0.0\nsamples = 2\nvalue = [0, 2]\nclass = t", fillcolor="#399de5"] ;
594 -> 596 ;
597 [label="gini = 0.0\nsamples = 3\nvalue = [3, 0]\nclass = s", fillcolor="#e58139"] ;
569 -> 597 ;
598 [label="Income <= 332.5\ngini = 0.133\nsamples = 14\nvalue = [1, 13]\nclass = t", fillcolor="#48a5e7"] ;
568 -> 598 ;
599 [label="gini = 0.0\nsamples = 13\nvalue = [0, 13]\nclass = t", fillcolor="#399de5"] ;
598 -> 599 ;
600 [label="gini = 0.0\nsamples = 1\nvalue = [1, 0]\nclass = s", fillcolor="#e58139"] ;
598 -> 600 ;
601 [label="Price <= 1049.0\ngini = 0.116\nsamples = 65\nvalue = [4, 61]\nclass = t", fillcolor="#46a3e7"] ;
567 -> 601 ;
602 [label="Amount <= 850.0\ngini = 0.337\nsamples = 14\nvalue = [3, 11]\nclass = t", fillcolor="#6fb8ec"] ;
601 -> 602 ;
603 [label="Debt <= 750.5\ngini = 0.165\nsamples = 11\nvalue = [1, 10]\nclass = t", fillcolor="#4da7e8"] ;
602 -> 603 ;
604 [label="gini = 0.0\nsamples = 8\nvalue = [0, 8]\nclass = t", fillcolor="#399de5"] ;
603 -> 604 ;
605 [label="Assets <= 5750.0\ngini = 0.444\nsamples = 3\nvalue = [1, 2]\nclass = t", fillcolor="#9ccef2"] ;
603 -> 605 ;
606 [label="gini = 0.0\nsamples = 1\nvalue = [1, 0]\nclass = s", fillcolor="#e58139"] ;
605 -> 606 ;
607 [label="gini = 0.0\nsamples = 2\nvalue = [0, 2]\nclass = t", fillcolor="#399de5"] ;
605 -> 607 ;
608 [label="Seniority <= 4.5\ngini = 0.444\nsamples = 3\nvalue = [2, 1]\nclass = s", fillcolor="#f2c09c"] ;
602 -> 608 ;
609 [label="gini = 0.0\nsamples = 2\nvalue = [2, 0]\nclass = s", fillcolor="#e58139"] ;
608 -> 609 ;
610 [label="gini = 0.0\nsamples = 1\nvalue = [0, 1]\nclass = t", fillcolor="#399de5"] ;
608 -> 610 ;
611 [label="Expenses <= 77.0\ngini = 0.038\nsamples = 51\nvalue = [1, 50]\nclass = t", fillcolor="#3d9fe6"] ;
601 -> 611 ;
612 [label="gini = 0.0\nsamples = 49\nvalue = [0, 49]\nclass = t", fillcolor="#399de5"] ;
611 -> 612 ;
613 [label="Job <= 0.5\ngini = 0.5\nsamples = 2\nvalue = [1, 1]\nclass = s", fillcolor="#ffffff"] ;
611 -> 613 ;
614 [label="gini = 0.0\nsamples = 1\nvalue = [1, 0]\nclass = s", fillcolor="#e58139"] ;
613 -> 614 ;
615 [label="gini = 0.0\nsamples = 1\nvalue = [0, 1]\nclass = t", fillcolor="#399de5"] ;
613 -> 615 ;
616 [label="Price <= 275.0\ngini = 0.081\nsamples = 590\nvalue = [25, 565]\nclass = t", fillcolor="#42a1e6"] ;
566 -> 616 ;
617 [label="gini = 0.0\nsamples = 1\nvalue = [1, 0]\nclass = s", fillcolor="#e58139"] ;
616 -> 617 ;
618 [label="Income <= 107.5\ngini = 0.078\nsamples = 589\nvalue = [24, 565]\nclass = t", fillcolor="#41a1e6"] ;
616 -> 618 ;
619 [label="Time <= 54.0\ngini = 0.221\nsamples = 71\nvalue = [9, 62]\nclass = t", fillcolor="#56abe9"] ;
618 -> 619 ;
620 [label="Amount <= 1375.0\ngini = 0.05\nsamples = 39\nvalue = [1, 38]\nclass = t", fillcolor="#3ea0e6"] ;
619 -> 620 ;
621 [label="gini = 0.0\nsamples = 38\nvalue = [0, 38]\nclass = t", fillcolor="#399de5"] ;
620 -> 621 ;
622 [label="gini = 0.0\nsamples = 1\nvalue = [1, 0]\nclass = s", fillcolor="#e58139"] ;
620 -> 622 ;
623 [label="Price <= 1098.0\ngini = 0.375\nsamples = 32\nvalue = [8, 24]\nclass = t", fillcolor="#7bbeee"] ;
619 -> 623 ;
624 [label="Assets <= 3250.0\ngini = 0.375\nsamples = 4\nvalue = [3, 1]\nclass = s", fillcolor="#eeab7b"] ;
623 -> 624 ;
625 [label="gini = 0.0\nsamples = 3\nvalue = [3, 0]\nclass = s", fillcolor="#e58139"] ;
624 -> 625 ;
626 [label="gini = 0.0\nsamples = 1\nvalue = [0, 1]\nclass = t", fillcolor="#399de5"] ;
624 -> 626 ;
627 [label="Debt <= 3100.0\ngini = 0.293\nsamples = 28\nvalue = [5, 23]\nclass = t", fillcolor="#64b2eb"] ;
623 -> 627 ;
628 [label="Seniority <= 31.5\ngini = 0.252\nsamples = 27\nvalue = [4, 23]\nclass = t", fillcolor="#5baeea"] ;
627 -> 628 ;
629 [label="Marital <= 0.5\ngini = 0.204\nsamples = 26\nvalue = [3, 23]\nclass = t", fillcolor="#53aae8"] ;
628 -> 629 ;
630 [label="Expenses <= 80.0\ngini = 0.087\nsamples = 22\nvalue = [1, 21]\nclass = t", fillcolor="#42a2e6"] ;
629 -> 630 ;
631 [label="gini = 0.0\nsamples = 20\nvalue = [0, 20]\nclass = t", fillcolor="#399de5"] ;
630 -> 631 ;
632 [label="Assets <= 4000.0\ngini = 0.5\nsamples = 2\nvalue = [1, 1]\nclass = s", fillcolor="#ffffff"] ;
630 -> 632 ;
633 [label="gini = 0.0\nsamples = 1\nvalue = [0, 1]\nclass = t", fillcolor="#399de5"] ;
632 -> 633 ;
634 [label="gini = 0.0\nsamples = 1\nvalue = [1, 0]\nclass = s", fillcolor="#e58139"] ;
632 -> 634 ;
635 [label="Expenses <= 45.5\ngini = 0.5\nsamples = 4\nvalue = [2, 2]\nclass = s", fillcolor="#ffffff"] ;
629 -> 635 ;
636 [label="gini = 0.0\nsamples = 2\nvalue = [0, 2]\nclass = t", fillcolor="#399de5"] ;
635 -> 636 ;
637 [label="gini = 0.0\nsamples = 2\nvalue = [2, 0]\nclass = s", fillcolor="#e58139"] ;
635 -> 637 ;
638 [label="gini = 0.0\nsamples = 1\nvalue = [1, 0]\nclass = s", fillcolor="#e58139"] ;
628 -> 638 ;
639 [label="gini = 0.0\nsamples = 1\nvalue = [1, 0]\nclass = s", fillcolor="#e58139"] ;
627 -> 639 ;
640 [label="Age <= 22.5\ngini = 0.056\nsamples = 518\nvalue = [15, 503]\nclass = t", fillcolor="#3fa0e6"] ;
618 -> 640 ;
641 [label="Seniority <= 7.5\ngini = 0.5\nsamples = 2\nvalue = [1, 1]\nclass = s", fillcolor="#ffffff"] ;
640 -> 641 ;
642 [label="gini = 0.0\nsamples = 1\nvalue = [1, 0]\nclass = s", fillcolor="#e58139"] ;
641 -> 642 ;
643 [label="gini = 0.0\nsamples = 1\nvalue = [0, 1]\nclass = t", fillcolor="#399de5"] ;
641 -> 643 ;
644 [label="Debt <= 6650.0\ngini = 0.053\nsamples = 516\nvalue = [14, 502]\nclass = t", fillcolor="#3fa0e6"] ;
640 -> 644 ;
645 [label="Price <= 2859.5\ngini = 0.049\nsamples = 513\nvalue = [13, 500]\nclass = t", fillcolor="#3ea0e6"] ;
644 -> 645 ;
646 [label="Income <= 467.0\ngini = 0.046\nsamples = 510\nvalue = [12, 498]\nclass = t", fillcolor="#3e9fe6"] ;
645 -> 646 ;
647 [label="Expenses <= 89.0\ngini = 0.042\nsamples = 507\nvalue = [11, 496]\nclass = t", fillcolor="#3d9fe6"] ;
646 -> 647 ;
648 [label="Seniority <= 6.5\ngini = 0.03\nsamples = 464\nvalue = [7, 457]\nclass = t", fillcolor="#3c9fe5"] ;
647 -> 648 ;
649 [label="Amount <= 1275.0\ngini = 0.139\nsamples = 40\nvalue = [3, 37]\nclass = t", fillcolor="#49a5e7"] ;
648 -> 649 ;
650 [label="gini = 0.0\nsamples = 33\nvalue = [0, 33]\nclass = t", fillcolor="#399de5"] ;
649 -> 650 ;
651 [label="Assets <= 1000.0\ngini = 0.49\nsamples = 7\nvalue = [3, 4]\nclass = t", fillcolor="#cee6f8"] ;
649 -> 651 ;
652 [label="Price <= 1360.0\ngini = 0.375\nsamples = 4\nvalue = [3, 1]\nclass = s", fillcolor="#eeab7b"] ;
651 -> 652 ;
653 [label="gini = 0.0\nsamples = 1\nvalue = [0, 1]\nclass = t", fillcolor="#399de5"] ;
652 -> 653 ;
654 [label="gini = 0.0\nsamples = 3\nvalue = [3, 0]\nclass = s", fillcolor="#e58139"] ;
652 -> 654 ;
655 [label="gini = 0.0\nsamples = 3\nvalue = [0, 3]\nclass = t", fillcolor="#399de5"] ;
651 -> 655 ;
656 [label="Amount <= 225.0\ngini = 0.019\nsamples = 424\nvalue = [4, 420]\nclass = t", fillcolor="#3b9ee5"] ;
648 -> 656 ;
657 [label="Time <= 45.0\ngini = 0.278\nsamples = 6\nvalue = [1, 5]\nclass = t", fillcolor="#61b1ea"] ;
656 -> 657 ;
658 [label="gini = 0.0\nsamples = 5\nvalue = [0, 5]\nclass = t", fillcolor="#399de5"] ;
657 -> 658 ;
659 [label="gini = 0.0\nsamples = 1\nvalue = [1, 0]\nclass = s", fillcolor="#e58139"] ;
657 -> 659 ;
660 [label="Age <= 61.5\ngini = 0.014\nsamples = 418\nvalue = [3, 415]\nclass = t", fillcolor="#3a9ee5"] ;
656 -> 660 ;
661 [label="Amount <= 1490.0\ngini = 0.01\nsamples = 408\nvalue = [2, 406]\nclass = t", fillcolor="#3a9de5"] ;
660 -> 661 ;
662 [label="Seniority <= 28.5\ngini = 0.005\nsamples = 388\nvalue = [1, 387]\nclass = t", fillcolor="#3a9de5"] ;
661 -> 662 ;
663 [label="gini = 0.0\nsamples = 361\nvalue = [0, 361]\nclass = t", fillcolor="#399de5"] ;
662 -> 663 ;
664 [label="Seniority <= 29.5\ngini = 0.071\nsamples = 27\nvalue = [1, 26]\nclass = t", fillcolor="#41a1e6"] ;
662 -> 664 ;
665 [label="Price <= 1186.5\ngini = 0.375\nsamples = 4\nvalue = [1, 3]\nclass = t", fillcolor="#7bbeee"] ;
664 -> 665 ;
666 [label="gini = 0.0\nsamples = 1\nvalue = [1, 0]\nclass = s", fillcolor="#e58139"] ;
665 -> 666 ;
667 [label="gini = 0.0\nsamples = 3\nvalue = [0, 3]\nclass = t", fillcolor="#399de5"] ;
665 -> 667 ;
668 [label="gini = 0.0\nsamples = 23\nvalue = [0, 23]\nclass = t", fillcolor="#399de5"] ;
664 -> 668 ;
669 [label="Age <= 55.5\ngini = 0.095\nsamples = 20\nvalue = [1, 19]\nclass = t", fillcolor="#43a2e6"] ;
661 -> 669 ;
670 [label="gini = 0.0\nsamples = 16\nvalue = [0, 16]\nclass = t", fillcolor="#399de5"] ;
669 -> 670 ;
671 [label="Seniority <= 17.5\ngini = 0.375\nsamples = 4\nvalue = [1, 3]\nclass = t", fillcolor="#7bbeee"] ;
669 -> 671 ;
672 [label="gini = 0.0\nsamples = 1\nvalue = [1, 0]\nclass = s", fillcolor="#e58139"] ;
671 -> 672 ;
673 [label="gini = 0.0\nsamples = 3\nvalue = [0, 3]\nclass = t", fillcolor="#399de5"] ;
671 -> 673 ;
674 [label="Home <= 0.5\ngini = 0.18\nsamples = 10\nvalue = [1, 9]\nclass = t", fillcolor="#4fa8e8"] ;
660 -> 674 ;
675 [label="gini = 0.0\nsamples = 7\nvalue = [0, 7]\nclass = t", fillcolor="#399de5"] ;
674 -> 675 ;
676 [label="Expenses <= 67.5\ngini = 0.444\nsamples = 3\nvalue = [1, 2]\nclass = t", fillcolor="#9ccef2"] ;
674 -> 676 ;
677 [label="gini = 0.0\nsamples = 1\nvalue = [1, 0]\nclass = s", fillcolor="#e58139"] ;
676 -> 677 ;
678 [label="gini = 0.0\nsamples = 2\nvalue = [0, 2]\nclass = t", fillcolor="#399de5"] ;
676 -> 678 ;
679 [label="Age <= 55.5\ngini = 0.169\nsamples = 43\nvalue = [4, 39]\nclass = t", fillcolor="#4da7e8"] ;
647 -> 679 ;
680 [label="Age <= 28.5\ngini = 0.133\nsamples = 42\nvalue = [3, 39]\nclass = t", fillcolor="#48a5e7"] ;
679 -> 680 ;
681 [label="Assets <= 5000.0\ngini = 0.5\nsamples = 2\nvalue = [1, 1]\nclass = s", fillcolor="#ffffff"] ;
680 -> 681 ;
682 [label="gini = 0.0\nsamples = 1\nvalue = [0, 1]\nclass = t", fillcolor="#399de5"] ;
681 -> 682 ;
683 [label="gini = 0.0\nsamples = 1\nvalue = [1, 0]\nclass = s", fillcolor="#e58139"] ;
681 -> 683 ;
684 [label="Income <= 115.0\ngini = 0.095\nsamples = 40\nvalue = [2, 38]\nclass = t", fillcolor="#43a2e6"] ;
680 -> 684 ;
685 [label="Assets <= 9750.0\ngini = 0.5\nsamples = 2\nvalue = [1, 1]\nclass = s", fillcolor="#ffffff"] ;
684 -> 685 ;
686 [label="gini = 0.0\nsamples = 1\nvalue = [1, 0]\nclass = s", fillcolor="#e58139"] ;
685 -> 686 ;
687 [label="gini = 0.0\nsamples = 1\nvalue = [0, 1]\nclass = t", fillcolor="#399de5"] ;
685 -> 687 ;
688 [label="Price <= 465.0\ngini = 0.051\nsamples = 38\nvalue = [1, 37]\nclass = t", fillcolor="#3ea0e6"] ;
684 -> 688 ;
689 [label="Home <= 0.5\ngini = 0.5\nsamples = 2\nvalue = [1, 1]\nclass = s", fillcolor="#ffffff"] ;
688 -> 689 ;
690 [label="gini = 0.0\nsamples = 1\nvalue = [0, 1]\nclass = t", fillcolor="#399de5"] ;
689 -> 690 ;
691 [label="gini = 0.0\nsamples = 1\nvalue = [1, 0]\nclass = s", fillcolor="#e58139"] ;
689 -> 691 ;
692 [label="gini = 0.0\nsamples = 36\nvalue = [0, 36]\nclass = t", fillcolor="#399de5"] ;
688 -> 692 ;
693 [label="gini = 0.0\nsamples = 1\nvalue = [1, 0]\nclass = s", fillcolor="#e58139"] ;
679 -> 693 ;
694 [label="Marital <= 0.5\ngini = 0.444\nsamples = 3\nvalue = [1, 2]\nclass = t", fillcolor="#9ccef2"] ;
646 -> 694 ;
695 [label="gini = 0.0\nsamples = 2\nvalue = [0, 2]\nclass = t", fillcolor="#399de5"] ;
694 -> 695 ;
696 [label="gini = 0.0\nsamples = 1\nvalue = [1, 0]\nclass = s", fillcolor="#e58139"] ;
694 -> 696 ;
697 [label="Assets <= 6000.0\ngini = 0.444\nsamples = 3\nvalue = [1, 2]\nclass = t", fillcolor="#9ccef2"] ;
645 -> 697 ;
698 [label="gini = 0.0\nsamples = 1\nvalue = [1, 0]\nclass = s", fillcolor="#e58139"] ;
697 -> 698 ;
699 [label="gini = 0.0\nsamples = 2\nvalue = [0, 2]\nclass = t", fillcolor="#399de5"] ;
697 -> 699 ;
700 [label="Age <= 41.0\ngini = 0.444\nsamples = 3\nvalue = [1, 2]\nclass = t", fillcolor="#9ccef2"] ;
644 -> 700 ;
701 [label="gini = 0.0\nsamples = 2\nvalue = [0, 2]\nclass = t", fillcolor="#399de5"] ;
700 -> 701 ;
702 [label="gini = 0.0\nsamples = 1\nvalue = [1, 0]\nclass = s", fillcolor="#e58139"] ;
700 -> 702 ;
703 [label="Price <= 1692.0\ngini = 0.326\nsamples = 78\nvalue = [16, 62]\nclass = t", fillcolor="#6cb6ec"] ;
565 -> 703 ;
704 [label="Income <= 175.5\ngini = 0.463\nsamples = 11\nvalue = [7, 4]\nclass = s", fillcolor="#f4c9aa"] ;
703 -> 704 ;
705 [label="gini = 0.0\nsamples = 6\nvalue = [6, 0]\nclass = s", fillcolor="#e58139"] ;
704 -> 705 ;
706 [label="Price <= 1574.5\ngini = 0.32\nsamples = 5\nvalue = [1, 4]\nclass = t", fillcolor="#6ab6ec"] ;
704 -> 706 ;
707 [label="gini = 0.0\nsamples = 1\nvalue = [1, 0]\nclass = s", fillcolor="#e58139"] ;
706 -> 707 ;
708 [label="gini = 0.0\nsamples = 4\nvalue = [0, 4]\nclass = t", fillcolor="#399de5"] ;
706 -> 708 ;
709 [label="Expenses <= 49.0\ngini = 0.233\nsamples = 67\nvalue = [9, 58]\nclass = t", fillcolor="#58ace9"] ;
703 -> 709 ;
710 [label="Debt <= 200.0\ngini = 0.408\nsamples = 28\nvalue = [8, 20]\nclass = t", fillcolor="#88c4ef"] ;
709 -> 710 ;
711 [label="Amount <= 1950.0\ngini = 0.298\nsamples = 22\nvalue = [4, 18]\nclass = t", fillcolor="#65b3eb"] ;
710 -> 711 ;
712 [label="gini = 0.0\nsamples = 12\nvalue = [0, 12]\nclass = t", fillcolor="#399de5"] ;
711 -> 712 ;
713 [label="Assets <= 5500.0\ngini = 0.48\nsamples = 10\nvalue = [4, 6]\nclass = t", fillcolor="#bddef6"] ;
711 -> 713 ;
714 [label="gini = 0.0\nsamples = 2\nvalue = [2, 0]\nclass = s", fillcolor="#e58139"] ;
713 -> 714 ;
715 [label="Marital <= 0.5\ngini = 0.375\nsamples = 8\nvalue = [2, 6]\nclass = t", fillcolor="#7bbeee"] ;
713 -> 715 ;
716 [label="gini = 0.0\nsamples = 6\nvalue = [0, 6]\nclass = t", fillcolor="#399de5"] ;
715 -> 716 ;
717 [label="gini = 0.0\nsamples = 2\nvalue = [2, 0]\nclass = s", fillcolor="#e58139"] ;
715 -> 717 ;
718 [label="Price <= 2334.0\ngini = 0.444\nsamples = 6\nvalue = [4, 2]\nclass = s", fillcolor="#f2c09c"] ;
710 -> 718 ;
719 [label="gini = 0.0\nsamples = 3\nvalue = [3, 0]\nclass = s", fillcolor="#e58139"] ;
718 -> 719 ;
720 [label="Debt <= 1450.0\ngini = 0.444\nsamples = 3\nvalue = [1, 2]\nclass = t", fillcolor="#9ccef2"] ;
718 -> 720 ;
721 [label="gini = 0.0\nsamples = 1\nvalue = [1, 0]\nclass = s", fillcolor="#e58139"] ;
720 -> 721 ;
722 [label="gini = 0.0\nsamples = 2\nvalue = [0, 2]\nclass = t", fillcolor="#399de5"] ;
720 -> 722 ;
723 [label="Income <= 296.0\ngini = 0.05\nsamples = 39\nvalue = [1, 38]\nclass = t", fillcolor="#3ea0e6"] ;
709 -> 723 ;
724 [label="gini = 0.0\nsamples = 30\nvalue = [0, 30]\nclass = t", fillcolor="#399de5"] ;
723 -> 724 ;
725 [label="Assets <= 9.0\ngini = 0.198\nsamples = 9\nvalue = [1, 8]\nclass = t", fillcolor="#52a9e8"] ;
723 -> 725 ;
726 [label="Income <= 310.0\ngini = 0.5\nsamples = 2\nvalue = [1, 1]\nclass = s", fillcolor="#ffffff"] ;
725 -> 726 ;
727 [label="gini = 0.0\nsamples = 1\nvalue = [1, 0]\nclass = s", fillcolor="#e58139"] ;
726 -> 727 ;
728 [label="gini = 0.0\nsamples = 1\nvalue = [0, 1]\nclass = t", fillcolor="#399de5"] ;
726 -> 728 ;
729 [label="gini = 0.0\nsamples = 7\nvalue = [0, 7]\nclass = t", fillcolor="#399de5"] ;
725 -> 729 ;
730 [label="Income <= 109.5\ngini = 0.491\nsamples = 192\nvalue = [83, 109]\nclass = t", fillcolor="#d0e8f9"] ;
440 -> 730 ;
731 [label="Amount <= 725.0\ngini = 0.469\nsamples = 72\nvalue = [45, 27]\nclass = s", fillcolor="#f5cdb0"] ;
730 -> 731 ;
732 [label="Debt <= 220.0\ngini = 0.36\nsamples = 17\nvalue = [4, 13]\nclass = t", fillcolor="#76bbed"] ;
731 -> 732 ;
733 [label="Amount <= 275.0\ngini = 0.142\nsamples = 13\nvalue = [1, 12]\nclass = t", fillcolor="#49a5e7"] ;
732 -> 733 ;
734 [label="Income <= 31.0\ngini = 0.444\nsamples = 3\nvalue = [1, 2]\nclass = t", fillcolor="#9ccef2"] ;
733 -> 734 ;
735 [label="gini = 0.0\nsamples = 1\nvalue = [1, 0]\nclass = s", fillcolor="#e58139"] ;
734 -> 735 ;
736 [label="gini = 0.0\nsamples = 2\nvalue = [0, 2]\nclass = t", fillcolor="#399de5"] ;
734 -> 736 ;
737 [label="gini = 0.0\nsamples = 10\nvalue = [0, 10]\nclass = t", fillcolor="#399de5"] ;
733 -> 737 ;
738 [label="Age <= 32.5\ngini = 0.375\nsamples = 4\nvalue = [3, 1]\nclass = s", fillcolor="#eeab7b"] ;
732 -> 738 ;
739 [label="gini = 0.0\nsamples = 1\nvalue = [0, 1]\nclass = t", fillcolor="#399de5"] ;
738 -> 739 ;
740 [label="gini = 0.0\nsamples = 3\nvalue = [3, 0]\nclass = s", fillcolor="#e58139"] ;
738 -> 740 ;
741 [label="Assets <= 17500.0\ngini = 0.38\nsamples = 55\nvalue = [41, 14]\nclass = s", fillcolor="#eeac7d"] ;
731 -> 741 ;
742 [label="Price <= 1042.5\ngini = 0.31\nsamples = 47\nvalue = [38, 9]\nclass = s", fillcolor="#eb9f68"] ;
741 -> 742 ;
743 [label="gini = 0.0\nsamples = 10\nvalue = [10, 0]\nclass = s", fillcolor="#e58139"] ;
742 -> 743 ;
744 [label="Price <= 1133.5\ngini = 0.368\nsamples = 37\nvalue = [28, 9]\nclass = s", fillcolor="#edaa79"] ;
742 -> 744 ;
745 [label="gini = 0.0\nsamples = 3\nvalue = [0, 3]\nclass = t", fillcolor="#399de5"] ;
744 -> 745 ;
746 [label="Seniority <= 4.5\ngini = 0.291\nsamples = 34\nvalue = [28, 6]\nclass = s", fillcolor="#eb9c63"] ;
744 -> 746 ;
747 [label="gini = 0.0\nsamples = 1\nvalue = [0, 1]\nclass = t", fillcolor="#399de5"] ;
746 -> 747 ;
748 [label="Assets <= 9250.0\ngini = 0.257\nsamples = 33\nvalue = [28, 5]\nclass = s", fillcolor="#ea985c"] ;
746 -> 748 ;
749 [label="Price <= 1549.5\ngini = 0.185\nsamples = 29\nvalue = [26, 3]\nclass = s", fillcolor="#e89050"] ;
748 -> 749 ;
750 [label="Income <= 18.0\ngini = 0.355\nsamples = 13\nvalue = [10, 3]\nclass = s", fillcolor="#eda774"] ;
749 -> 750 ;
751 [label="gini = 0.0\nsamples = 1\nvalue = [0, 1]\nclass = t", fillcolor="#399de5"] ;
750 -> 751 ;
752 [label="Price <= 1539.5\ngini = 0.278\nsamples = 12\nvalue = [10, 2]\nclass = s", fillcolor="#ea9a61"] ;
750 -> 752 ;
753 [label="Home <= 0.5\ngini = 0.165\nsamples = 11\nvalue = [10, 1]\nclass = s", fillcolor="#e88e4d"] ;
752 -> 753 ;
754 [label="gini = 0.0\nsamples = 1\nvalue = [0, 1]\nclass = t", fillcolor="#399de5"] ;
753 -> 754 ;
755 [label="gini = 0.0\nsamples = 10\nvalue = [10, 0]\nclass = s", fillcolor="#e58139"] ;
753 -> 755 ;
756 [label="gini = 0.0\nsamples = 1\nvalue = [0, 1]\nclass = t", fillcolor="#399de5"] ;
752 -> 756 ;
757 [label="gini = 0.0\nsamples = 16\nvalue = [16, 0]\nclass = s", fillcolor="#e58139"] ;
749 -> 757 ;
758 [label="Time <= 42.0\ngini = 0.5\nsamples = 4\nvalue = [2, 2]\nclass = s", fillcolor="#ffffff"] ;
748 -> 758 ;
759 [label="gini = 0.0\nsamples = 2\nvalue = [2, 0]\nclass = s", fillcolor="#e58139"] ;
758 -> 759 ;
760 [label="gini = 0.0\nsamples = 2\nvalue = [0, 2]\nclass = t", fillcolor="#399de5"] ;
758 -> 760 ;
761 [label="Amount <= 975.0\ngini = 0.469\nsamples = 8\nvalue = [3, 5]\nclass = t", fillcolor="#b0d8f5"] ;
741 -> 761 ;
762 [label="gini = 0.0\nsamples = 2\nvalue = [2, 0]\nclass = s", fillcolor="#e58139"] ;
761 -> 762 ;
763 [label="Expenses <= 67.5\ngini = 0.278\nsamples = 6\nvalue = [1, 5]\nclass = t", fillcolor="#61b1ea"] ;
761 -> 763 ;
764 [label="gini = 0.0\nsamples = 5\nvalue = [0, 5]\nclass = t", fillcolor="#399de5"] ;
763 -> 764 ;
765 [label="gini = 0.0\nsamples = 1\nvalue = [1, 0]\nclass = s", fillcolor="#e58139"] ;
763 -> 765 ;
766 [label="Assets <= 500.0\ngini = 0.433\nsamples = 120\nvalue = [38, 82]\nclass = t", fillcolor="#95caf1"] ;
730 -> 766 ;
767 [label="Seniority <= 4.5\ngini = 0.498\nsamples = 36\nvalue = [19, 17]\nclass = s", fillcolor="#fcf2ea"] ;
766 -> 767 ;
768 [label="gini = 0.0\nsamples = 5\nvalue = [5, 0]\nclass = s", fillcolor="#e58139"] ;
767 -> 768 ;
769 [label="Expenses <= 74.5\ngini = 0.495\nsamples = 31\nvalue = [14, 17]\nclass = t", fillcolor="#dceefa"] ;
767 -> 769 ;
770 [label="Age <= 30.5\ngini = 0.475\nsamples = 18\nvalue = [11, 7]\nclass = s", fillcolor="#f6d1b7"] ;
769 -> 770 ;
771 [label="gini = 0.0\nsamples = 3\nvalue = [0, 3]\nclass = t", fillcolor="#399de5"] ;
770 -> 771 ;
772 [label="Income <= 125.0\ngini = 0.391\nsamples = 15\nvalue = [11, 4]\nclass = s", fillcolor="#eeaf81"] ;
770 -> 772 ;
773 [label="Time <= 54.0\ngini = 0.32\nsamples = 5\nvalue = [1, 4]\nclass = t", fillcolor="#6ab6ec"] ;
772 -> 773 ;
774 [label="gini = 0.0\nsamples = 3\nvalue = [0, 3]\nclass = t", fillcolor="#399de5"] ;
773 -> 774 ;
775 [label="Marital <= 0.5\ngini = 0.5\nsamples = 2\nvalue = [1, 1]\nclass = s", fillcolor="#ffffff"] ;
773 -> 775 ;
776 [label="gini = 0.0\nsamples = 1\nvalue = [0, 1]\nclass = t", fillcolor="#399de5"] ;
775 -> 776 ;
777 [label="gini = 0.0\nsamples = 1\nvalue = [1, 0]\nclass = s", fillcolor="#e58139"] ;
775 -> 777 ;
778 [label="gini = 0.0\nsamples = 10\nvalue = [10, 0]\nclass = s", fillcolor="#e58139"] ;
772 -> 778 ;
779 [label="Expenses <= 104.5\ngini = 0.355\nsamples = 13\nvalue = [3, 10]\nclass = t", fillcolor="#74baed"] ;
769 -> 779 ;
780 [label="Amount <= 700.0\ngini = 0.18\nsamples = 10\nvalue = [1, 9]\nclass = t", fillcolor="#4fa8e8"] ;
779 -> 780 ;
781 [label="Time <= 30.0\ngini = 0.444\nsamples = 3\nvalue = [1, 2]\nclass = t", fillcolor="#9ccef2"] ;
780 -> 781 ;
782 [label="gini = 0.0\nsamples = 2\nvalue = [0, 2]\nclass = t", fillcolor="#399de5"] ;
781 -> 782 ;
783 [label="gini = 0.0\nsamples = 1\nvalue = [1, 0]\nclass = s", fillcolor="#e58139"] ;
781 -> 783 ;
784 [label="gini = 0.0\nsamples = 7\nvalue = [0, 7]\nclass = t", fillcolor="#399de5"] ;
780 -> 784 ;
785 [label="Seniority <= 23.0\ngini = 0.444\nsamples = 3\nvalue = [2, 1]\nclass = s", fillcolor="#f2c09c"] ;
779 -> 785 ;
786 [label="gini = 0.0\nsamples = 2\nvalue = [2, 0]\nclass = s", fillcolor="#e58139"] ;
785 -> 786 ;
787 [label="gini = 0.0\nsamples = 1\nvalue = [0, 1]\nclass = t", fillcolor="#399de5"] ;
785 -> 787 ;
788 [label="Expenses <= 89.5\ngini = 0.35\nsamples = 84\nvalue = [19, 65]\nclass = t", fillcolor="#73baed"] ;
766 -> 788 ;
789 [label="Amount <= 862.5\ngini = 0.29\nsamples = 74\nvalue = [13, 61]\nclass = t", fillcolor="#63b2eb"] ;
788 -> 789 ;
790 [label="gini = 0.0\nsamples = 24\nvalue = [0, 24]\nclass = t", fillcolor="#399de5"] ;
789 -> 790 ;
791 [label="Price <= 1075.0\ngini = 0.385\nsamples = 50\nvalue = [13, 37]\nclass = t", fillcolor="#7fbfee"] ;
789 -> 791 ;
792 [label="gini = 0.0\nsamples = 4\nvalue = [4, 0]\nclass = s", fillcolor="#e58139"] ;
791 -> 792 ;
793 [label="Age <= 56.0\ngini = 0.315\nsamples = 46\nvalue = [9, 37]\nclass = t", fillcolor="#69b5eb"] ;
791 -> 793 ;
794 [label="Income <= 125.0\ngini = 0.268\nsamples = 44\nvalue = [7, 37]\nclass = t", fillcolor="#5eb0ea"] ;
793 -> 794 ;
795 [label="Age <= 36.5\ngini = 0.48\nsamples = 5\nvalue = [3, 2]\nclass = s", fillcolor="#f6d5bd"] ;
794 -> 795 ;
796 [label="gini = 0.0\nsamples = 2\nvalue = [0, 2]\nclass = t", fillcolor="#399de5"] ;
795 -> 796 ;
797 [label="gini = 0.0\nsamples = 3\nvalue = [3, 0]\nclass = s", fillcolor="#e58139"] ;
795 -> 797 ;
798 [label="Income <= 295.0\ngini = 0.184\nsamples = 39\nvalue = [4, 35]\nclass = t", fillcolor="#50a8e8"] ;
794 -> 798 ;
799 [label="Debt <= 2900.0\ngini = 0.061\nsamples = 32\nvalue = [1, 31]\nclass = t", fillcolor="#3fa0e6"] ;
798 -> 799 ;
800 [label="gini = 0.0\nsamples = 31\nvalue = [0, 31]\nclass = t", fillcolor="#399de5"] ;
799 -> 800 ;
801 [label="gini = 0.0\nsamples = 1\nvalue = [1, 0]\nclass = s", fillcolor="#e58139"] ;
799 -> 801 ;
802 [label="Age <= 45.5\ngini = 0.49\nsamples = 7\nvalue = [3, 4]\nclass = t", fillcolor="#cee6f8"] ;
798 -> 802 ;
803 [label="Debt <= 2150.0\ngini = 0.375\nsamples = 4\nvalue = [3, 1]\nclass = s", fillcolor="#eeab7b"] ;
802 -> 803 ;
804 [label="gini = 0.0\nsamples = 3\nvalue = [3, 0]\nclass = s", fillcolor="#e58139"] ;
803 -> 804 ;
805 [label="gini = 0.0\nsamples = 1\nvalue = [0, 1]\nclass = t", fillcolor="#399de5"] ;
803 -> 805 ;
806 [label="gini = 0.0\nsamples = 3\nvalue = [0, 3]\nclass = t", fillcolor="#399de5"] ;
802 -> 806 ;
807 [label="gini = 0.0\nsamples = 2\nvalue = [2, 0]\nclass = s", fillcolor="#e58139"] ;
793 -> 807 ;
808 [label="Assets <= 14000.0\ngini = 0.48\nsamples = 10\nvalue = [6, 4]\nclass = s", fillcolor="#f6d5bd"] ;
788 -> 808 ;
809 [label="Seniority <= 13.0\ngini = 0.375\nsamples = 8\nvalue = [6, 2]\nclass = s", fillcolor="#eeab7b"] ;
808 -> 809 ;
810 [label="gini = 0.0\nsamples = 5\nvalue = [5, 0]\nclass = s", fillcolor="#e58139"] ;
809 -> 810 ;
811 [label="Amount <= 1187.5\ngini = 0.444\nsamples = 3\nvalue = [1, 2]\nclass = t", fillcolor="#9ccef2"] ;
809 -> 811 ;
812 [label="gini = 0.0\nsamples = 1\nvalue = [1, 0]\nclass = s", fillcolor="#e58139"] ;
811 -> 812 ;
813 [label="gini = 0.0\nsamples = 2\nvalue = [0, 2]\nclass = t", fillcolor="#399de5"] ;
811 -> 813 ;
814 [label="gini = 0.0\nsamples = 2\nvalue = [0, 2]\nclass = t", fillcolor="#399de5"] ;
808 -> 814 ;
}